\data\
ngram 1=10440
ngram 2=22193
ngram 3=19886

\1-grams:
-4.386352	<unk>	0
0	<s>	-0.68577147
-0.5346198	</s>	0
-4.3076773	""OPTICARE	-0.07256129
-4.3076773	500X3	-0.07256129
-4.3076773	"EDEEMED	-0.07256129
-3.2218037	WITHIN	-0.29100192
-4.3076773	THREE(3)	-0.07256129
-4.1253304	MONTHS	-0.16982675
-3.5456924	FROM	-0.18577507
-3.0383525	THE	-0.1296961
-3.4818718	DATE	-0.20594554
-2.8107042	OF	-0.21554735
-3.3326547	z	-0.15728706
-3.981255	INDICATED	-0.16982675
-3.4818718	THIS	-0.18577507
-3.017486	TAX	-0.30264932
-3.3326547	CODE	-0.39348528
-4.3076773	BELONG	-0.07256129
-3.0383525	TO	-0.18430571
-3.3769312	SERVICE	-0.15044428
-3.5456924	ITEMS	-0.23949108
-3.5456924	SOLD	-0.23813021
-4.3076773	z000001	-0.07256129
-4.3076773	z001-001-0934-0001	-0.07256129
-4.1253304	05/01/2018	-0.07256129
-4.3076773	13:30-R	-0.07256129
-4.3076773	z0023	-0.07256129
-4.3076773	KLIA2	-0.07256129
-4.3076773	ARRIVAL	-0.07256129
-4.3076773	z002348863	-0.07256129
-3.981255	z01	-0.16982675
-3.5456924	01	-0.14530925
-4.3076773	z027553	-0.07256129
-4.3076773	z1000000163	-0.07256129
-4.3076773	z1011801-5	-0.07256129
-4.3076773	z1120221	-0.07256129
-4.3076773	z1120472	-0.07256129
-4.3076773	z1240302-02	-0.07256129
-4.3076773	z195360	-0.07256129
-4.3076773	zTOTAL	-0.07256129
-3.8254461	QTY	-0.1389679
-4.3076773	$0.00	-0.07256129
-4.3076773	$0.20	-0.07256129
-4.1253304	$0.50	-0.22807278
-4.3076773	$0.60	-0.07256129
-4.3076773	$0.80	-0.07256129
-4.3076773	$0.90	-0.07256129
-4.3076773	$1.10	-0.07256129
-4.3076773	$1.30	-0.07256129
-4.3076773	$1.60	-0.07256129
-4.3076773	$1.80	-0.07256129
-3.981255	$10.30	-0.30265346
-4.1253304	$10.70	-0.22807278
-3.981255	$11.20	-0.30265346
-4.1253304	$11.40	-0.22807278
-4.3076773	$2.00	-0.07256129
-4.3076773	$2.20	-0.07256129
-4.3076773	$2.50	-0.07256129
-4.3076773	$2.70	-0.07256129
-4.3076773	$3.00	-0.07256129
-4.3076773	$3.30	-0.07256129
-4.3076773	$3.70	-0.07256129
-4.3076773	$4.40	-0.07256129
-4.3076773	$4.80	-0.07256129
-4.3076773	$5.50	-0.07256129
-4.3076773	$6.00	-0.07256129
-4.1253304	$6.60	-0.22807278
-3.981255	$7.00	-0.30265346
-3.981255	$7.10	-0.30265346
-3.981255	$7.60	-0.30265346
-4.3076773	$8.10	-0.07256129
-3.981255	$8.20	-0.30265346
-4.3076773	$8.40	-0.07256129
-4.3076773	$8.60	-0.07256129
-3.981255	$8.70	-0.30265346
-3.981255	$8.90	-0.30265346
-4.1253304	$9.20	-0.22807278
-3.981255	$9.90	-0.30265346
-3.4818718	%	-0.39439303
-2.5730355	&	-0.106887005
-3.2218037	TEA	-0.18622659
-3.981255	LEAF	-0.07256129
-3.2924776	(M)	-0.38542083
-3.2924776	SDN.	-0.65147966
-3.981255	BHD.	-0.11847674
-4.3076773	TELECOMMUNICATION	-0.07256129
-4.3076773	(523847-W)	-0.07256129
-4.3076773	TWITTER	-0.07256129
-4.3076773	@APIETHING	-0.07256129
-4.3076773	'zTAKE	-0.07256129
-4.3076773	AWAYz'	-0.07256129
-4.3076773	'CLIPSAL'	-0.07256129
-4.3076773	4G	-0.07256129
-4.3076773	1W	-0.07256129
-4.3076773	SWITCH	-0.07256129
-4.3076773	'XINGHUA'SPRING	-0.07256129
-3.4818718	ROLL	-0.17163652
-3.8254461	(	-0.10262606
-2.6996439	GST	-0.2637922
-2.97854	NO:	-0.09219859
-4.3076773	002126950400	-0.07256129
-3.6205342	)	-0.40883586
-2.894166	NO.	-0.20995978
-3.3326547	ID	-0.25224817
-3.8254461	GST:	-0.14339326
-4.3076773	002147033088	-0.07256129
-4.1253304	ROC	-0.07256129
-2.1606252	:	-0.15153807
-4.3076773	SA0416111-K	-0.07256129
-4.3076773	((@6%)	-0.07256129
-4.3076773	(0.01)	-0.07256129
-4.3076773	(0.02)	-0.07256129
-4.3076773	(0005583085-K)	-0.07256129
-4.3076773	(000760274-K)	-0.07256129
-4.3076773	(001451637-M)	-0.07256129
-4.3076773	(001610235-P)	-0.07256129
-4.3076773	(001910559-U)	-0.07256129
-4.3076773	(001963477-M)	-0.07256129
-4.3076773	(002022599	-0.07256129
-2.1073744	-	-0.1558799
-4.3076773	U)	-0.07256129
-4.3076773	(002049088-U)	-0.07256129
-4.3076773	(002050590-H)	-0.07256129
-4.3076773	(002107265-V)	-0.07256129
-3.981255	(1	-0.07256129
-4.3076773	BOX)	-0.07256129
-4.3076773	GENTAMICIN	-0.07256129
-3.5456924	CREAM	-0.11161263
-4.3076773	(1035693-T)	-0.07256129
-4.3076773	(1074617K)	-0.07256129
-4.3076773	(1097826-H)	-0.07256129
-4.3076773	(10ROLL/PKT)	-0.07256129
-4.3076773	(1113440A)	-0.07256129
-4.3076773	(1120908-M)	-0.07256129
-4.3076773	(1122327-U)	-0.07256129
-4.3076773	(1125830-V)	-0.07256129
-4.3076773	(1143655-H)	-0.07256129
-4.3076773	(1168272-U)	-0.07256129
-4.3076773	(1179227A)	-0.07256129
-4.3076773	(12	-0.07256129
-4.3076773	PCS)	-0.07256129
-4.3076773	(1219716-T)	-0.07256129
-3.981255	(126926-H)	-0.30265346
-4.3076773	(1365663-P)	-0.07256129
-4.3076773	(162761-M)	-0.07256129
-4.3076773	(201283-M)	-0.07256129
-4.3076773	(220MMX310MM)	-0.07256129
-4.3076773	(317041-W)	-0.07256129
-4.3076773	(481500-M)	-0.07256129
-4.1253304	(50PCS)	-0.07256129
-4.3076773	(521273-W)	-0.07256129
-4.3076773	(590150-A)	-0.07256129
-4.3076773	(65351-M)	-0.07256129
-4.3076773	(716269-X)	-0.07256129
-4.3076773	(742016-W)	-0.07256129
-4.3076773	(767840-W)	-0.07256129
-4.3076773	(801222-M)	-0.07256129
-4.3076773	(801580-T)	-0.07256129
-4.3076773	(81109-A)	-0.07256129
-4.3076773	(867388-U)	-0.07256129
-4.3076773	(872981-V)	-0.07256129
-4.3076773	(894996-D)	-0.07256129
-4.3076773	(913144-A)	-0.07256129
-4.3076773	(945402-P)	-0.07256129
-4.3076773	(961394-X)	-0.07256129
-4.3076773	(989625-A)	-0.07256129
-4.3076773	(@	-0.07256129
-4.1253304	0%)	-0.22807278
-4.1253304	6%)	-0.22807278
-4.3076773	(@0%)	-0.07256129
-4.3076773	(@6%)	-0.07256129
-4.3076773	(A2F1)BG	-0.07256129
-3.981255	MASK	-0.12827247
-4.3076773	74169/157/147	-0.07256129
-4.3076773	(A3F1)PMFLR	-0.07256129
-3.981255	CLEANER	-0.16982675
-4.3076773	(AC)	-0.07256129
-3.2924776	(B)	-0.39085615
-4.3076773	(B03)	-0.07256129
-3.981255	JASMINE	-0.16982675
-3.3769312	GREEN	-0.36352205
-4.3076773	(B3F1)PM	-0.07256129
-4.1253304	BATHROOM	-0.16982675
-4.3076773	(BILL	-0.07256129
-3.4818718	INCLUSIVE	-0.27785316
-3.1077387	6%	-0.40810907
-4.3076773	RM1.66)	-0.07256129
-4.3076773	(BLUE)	-0.07256129
-4.3076773	(57MMX60MMX12MM)	-0.07256129
-4.3076773	(BP)	-0.07256129
-4.3076773	(BQ)	-0.07256129
-4.3076773	(CAN)	-0.07256129
-4.3076773	(CHERAS	-0.07256129
-4.1253304	LEISURE	-0.07256129
-3.8254461	MALL)	-0.4275922
-4.3076773	(CO	-0.07256129
-3.4262395	REG	-0.2085269
-4.3076773	750441-W)	-0.07256129
-4.3076773	860871-D)	-0.07256129
-4.3076773	:750441-W)	-0.07256129
-4.1253304	:860671-D)	-0.22807278
-4.1253304	(CO.	-0.07256129
-4.3076773	113821-W)	-0.07256129
-4.3076773	113825-W)	-0.07256129
-4.1253304	JM0195368-D)	-0.22807278
-4.3076773	RFG	-0.07256129
-4.3076773	860671-D)	-0.07256129
-4.3076773	(CO.NO.	-0.07256129
-4.3076773	1208604-T)	-0.07256129
-4.3076773	(CO.NO.639240	-0.07256129
-4.3076773	H)	-0.07256129
-4.3076773	(CO.NO.:	-0.07256129
-4.3076773	123769-W)	-0.07256129
-4.3076773	(CO.REG	-0.07256129
-4.3076773	933109-X)	-0.07256129
-4.3076773	:704427-T)	-0.07256129
-4.3076773	(COMPANY	-0.07256129
-4.3076773	(CONDITIONS	-0.07256129
-4.3076773	APPLY)	-0.07256129
-4.1253304	(DISC:	-0.07256129
-4.3076773	1.0000)	-0.07256129
-4.3076773	(EACH)	-0.07256129
-4.1253304	PAN	-0.07256129
-4.3076773	MATE	-0.07256129
-3.7110152	COTTON	-0.12827247
-4.3076773	BUDS	-0.07256129
-4.3076773	4DOTIPS	-0.07256129
-4.3076773	(ENDAH	-0.07256129
-4.3076773	PARADE)	-0.07256129
-4.3076773	(EXCL	-0.07256129
-3.2924776	GST)	-0.5057459
-4.3076773	(EXCLUDED	-0.07256129
-3.8254461	SUB	-0.22807278
-3.161037	TOTAL	-0.14469405
-3.3769312	(RM)	-0.44359797
-3.7110152	TOTAL:	-0.12688139
-3.8254461	(GST	-0.09491249
-4.3076773	000294060032)	-0.07256129
-2.79823	NO	-0.2761713
-2.9975767	.	-0.23722878
-4.3076773	001439154176)	-0.07256129
-4.3076773	001285423104)	-0.07256129
-4.3076773	000144596992)	-0.07256129
-4.3076773	000306020352)	-0.07256129
-4.3076773	000473792512)	-0.07256129
-4.3076773	001147416576)	-0.07256129
-4.3076773	001656262656)	-0.07256129
-4.3076773	:000306020352)	-0.07256129
-4.3076773	:000473792512)	-0.07256129
-4.3076773	:001092886528)	-0.07256129
-4.3076773	000377700352)	-0.07256129
-4.3076773	000504664064)	-0.07256129
-4.3076773	00504664064)	-0.07256129
-3.7110152	ID:	-0.10099069
-4.3076773	001137704960)	-0.07256129
-4.3076773	001927782400)	-0.07256129
-4.3076773	000150511616)	-0.07256129
-3.1903584	NO.:	-0.09831183
-4.3076773	000610435072)	-0.07256129
-4.3076773	001557721088)	-0.07256129
-4.3076773	000243941376)	-0.07256129
-4.3076773	000906854400)	-0.07256129
-4.3076773	001492992000)	-0.07256129
-4.3076773	001559298048)	-0.07256129
-3.7110152	REG.	-0.20777698
-4.3076773	000306700288)	-0.07256129
-4.3076773	000416321536)	-0.07256129
-4.3076773	000435761152)	-0.07256129
-4.3076773	000670224384)	-0.07256129
-4.3076773	001685499904)	-0.07256129
-4.3076773	002055098368)	-0.07256129
-4.1253304	REG.NO:	-0.07256129
-4.3076773	001375580160)	-0.07256129
-4.1253304	REGISTRATION	-0.16982675
-4.3076773	000650247680)	-0.07256129
-4.3076773	000850247680)	-0.07256129
-4.3076773	001751072768)	-0.07256129
-4.1253304	(GST)	-0.22807278
-4.3076773	(GST:001019043840)	-0.07256129
-4.3076773	(GUEST	-0.07256129
-4.3076773	SIGNATURE)	-0.07256129
-3.8254461	(ICE)	-0.4275922
-3.981255	(INCLUSIVE	-0.2327446
-4.3076773	(IOI	-0.07256129
-4.3076773	PUCHONG)	-0.07256129
-4.3076773	(JALAN	-0.07256129
-3.7110152	KLANG	-0.07256131
-4.3076773	LAMA)	-0.07256129
-4.3076773	(JM0292487-D)	-0.07256129
-4.3076773	(JM0352019-K)	-0.07256129
-4.3076773	(JM0840871-W)	-0.07256129
-4.3076773	(KB)	-0.07256129
-4.3076773	(KC)	-0.07256129
-4.3076773	(KEPONG)	-0.07256129
-4.1253304	(L)	-0.16982675
-4.3076773	(LLP0007299-LGN)	-0.07256129
-4.3076773	(MELAWATI	-0.07256129
-4.3076773	(MUTIARA	-0.07256129
-4.3076773	KOMPLEKS)	-0.07256129
-4.1253304	RINI	-0.07256129
-4.3076773	16)	-0.07256129
-4.3076773	(MY)	-0.07256129
-4.3076773	EDV	-0.07256129
-4.1253304	MEAL	-0.07256129
-3.5456924	(MYR)	-0.35612047
-4.3076773	(OFFER)	-0.07256129
-4.3076773	(POS	-0.07256129
-4.3076773	3)	-0.07256129
-4.3076773	6.63)	-0.07256129
-4.3076773	(PRICE	-0.07256129
-4.3076773	(PRLCE	-0.07256129
-4.3076773	(PUSAT	-0.07256129
-3.7110152	PERNIAGAAN	-0.11847674
-3.7110152	BUNGA	-0.11161263
-4.1253304	RAYA,	-0.16982675
-4.3076773	MANTIN)	-0.07256129
-4.3076773	(R05)	-0.07256129
-4.1253304	ROAST	-0.07256129
-3.5456924	PORK	-0.14530925
-3.7110152	+	-0.11847674
-4.3076773	(RECEIPT	-0.07256129
-4.3076773	REC.0015016)	-0.07256129
-4.1253304	(S	-0.07256129
-4.3076773	SIZE)	-0.07256129
-3.3769312	SUPER	-0.09315172
-4.3076773	SAFE	-0.07256129
-4.3076773	LATEX	-0.07256129
-3.981255	GLOVE	-0.07256129
-3.981255	POWDER	-0.07256129
-3.7110152	F	-0.19563296
-3.2557044	(S)	-0.642791
-4.3076773	(S)"	-0.07256129
-4.3076773	(SELAYANG	-0.07256129
-4.3076773	(SG	-0.07256129
-4.3076773	WANG)	-0.07256129
-4.3076773	(STRAND	-0.07256129
-3.3769312	MALL	-0.35306758
-3.8254461	KOTA	-0.07256129
-3.981255	DAMANSARA)	-0.30265346
-4.3076773	(SUBANG	-0.07256129
-4.3076773	JASA)	-0.07256129
-4.3076773	(T02)	-0.07256129
-3.981255	BRAISED	-0.16982675
-4.3076773	(TE)	-0.07256129
-4.3076773	(TESCO	-0.07256129
-3.8254461	EXTRA	-0.07256131
-4.1253304	ARA	-0.07256129
-4.3076773	KAJANG)	-0.07256129
-4.3076773	MENJALARA	-0.07256129
-3.5456924	KEPONG	-0.10653483
-3.0602722	,	-0.24221928
-4.3076773	HQ)	-0.07256129
-4.1253304	MUTIARA	-0.07256129
-4.1253304	PUTRA	-0.07256129
-4.3076773	NILAI)	-0.07256129
-4.3076773	(TONYMOLY	-0.07256129
-3.981255	SHOP	-0.07256129
-4.3076773	(95874))	-0.07256129
-4.3076773	(TOTAL	-0.07256129
-3.8254461	INCLUDED	-0.14339326
-2.8107042	@	-0.18014859
-4.3076773	0.42)	-0.07256129
-4.3076773	1.09)	-0.07256129
-4.3076773	(UNIT)	-0.07256129
-4.1253304	ROYAL	-0.14339326
-4.1253304	BAKING	-0.07256129
-4.1253304	450G	-0.22807278
-4.3076773	WAYCARE	-0.07256129
-4.3076773	WOUND	-0.07256129
-4.3076773	DRESSING	-0.07256129
-4.3076773	WATERPROOF	-0.07256129
-4.3076773	(V02)	-0.07256129
-3.8254461	SOUR	-0.07256129
-3.8254461	SPICY	-0.07256131
-4.3076773	(W33)	-0.07256129
-4.3076773	105MM/4'	-0.07256129
-4.1253304	CUTTING	-0.22807278
-3.8254461	DISC	-0.17114475
-4.3076773	(WOC-115)	-0.07256129
-4.3076773	(WWW.	-0.07256129
-4.3076773	ANMS-FNB	-0.07256129
-4.3076773	COM)	-0.07256129
-4.1253304	(X)	-0.07256129
-4.3076773	U13/X,	-0.07256129
-3.7110152	SETIA	-0.15452553
-4.1253304	ALAM,	-0.11847674
-2.9259765	*	-0.47137707
-2.7407258	1	-0.22237776
-3.161037	0	-0.31812745
-3.1903584	6	-0.25264928
-3.017486	3	-0.24401759
-4.3076773	DUPLICATE	-0.07256129
-3.6205342	COPY	-0.1725443
-3.981255	CUP	-0.07256129
-4.1253304	INCLUDE	-0.07256129
-3.0383525	ITEM	-0.2235426
-4.1253304	GUEST	-0.14339326
-3.981255	CHECK	-0.07256129
-4.1253304	NETT	-0.07256129
-3.6205342	PRICE	-0.17114475
-2.894166	RM	-0.14470571
-3.981255	2.83	-0.16982675
-3.981255	UNI	-0.12827247
-4.1253304	0.17)=RM	-0.07256129
-4.1253304	33.02	-0.16982675
-4.1253304	3.96)=RM	-0.07256129
-4.1253304	66.04	-0.22807278
-3.981255	INVOICE	-0.11546033
-3.5456924	SALES	-0.13137573
-3.4262395	YOUR	-0.07256129
-4.1253304	SAVINGS	-0.07256129
-3.8254461	8.00	-0.11161263
-3.7110152	**	-0.21476488
-4.3076773	00600716214045691	-0.07256129
-3.3769312	ORIGINAL	-0.11476718
-3.1335707	PLEASE	-0.30951157
-3.981255	KEEP	-0.07256131
-3.2218037	RECEIPT	-0.25291124
-3.0602722	FOR	-0.11281606
-4.3076773	PROVE	-0.07256129
-4.1253304	RE-PRINT	-0.07256129
-3.7110152	***	-0.341761
-3.981255	20/06/2018	-0.19219674
-4.1253304	12:56	-0.07256129
-2.4579399	PM	-1.2147648
-4.3076773	RETAIL/TAKEAWAY	-0.07256129
-3.7110152	****	-0.21476488
-4.3076773	OFFICIAL	-0.07256129
-4.3076773	RETAIN	-0.07256129
-4.1253304	REFERENCE	-0.07256129
-3.8254461	PROMO	-0.09952416
-3.6205342	THANK	-0.21476488
-3.4262395	YOU	-0.1406755
-4.3076773	************4116	-0.07256129
-4.3076773	(VISA)	-0.07256129
-4.3076773	****MERCI	-0.07256129
-3.981255	DE	-0.07256129
-4.3076773	VOTRE	-0.07256129
-4.3076773	VISITE****	-0.07256129
-4.3076773	****THANK	-0.07256129
-4.3076773	YOU.****	-0.07256129
-4.3076773	***PLEASE	-0.07256129
-3.3326547	COME	-0.18005532
-4.3076773	AGAIN***	-0.07256129
-4.3076773	***THANK	-0.07256129
-4.3076773	YOU***	-0.07256129
-4.3076773	**TAX	-0.07256129
-4.3076773	INVOICE**	-0.07256129
-4.3076773	*1	-0.07256129
-4.3076773	*2	-0.07256129
-4.3076773	*3	-0.07256129
-4.3076773	*350PCS	-0.07256129
-4.1253304	FRUIT	-0.07256129
-4.3076773	PLUS-APPLE	-0.07256129
-4.3076773	*4	-0.07256129
-4.3076773	*6%	-0.07256129
-4.3076773	*BILL*	-0.07256129
-4.3076773	*CUSTOMER	-0.07256129
-4.1253304	CARE	-0.07256129
-4.1253304	LINE	-0.07256129
-4.3076773	012-7092889	-0.07256129
-4.3076773	*CUSTOMERSERVICE@DELUXEGROUPS.COM	-0.07256129
-4.3076773	*GOODS	-0.07256129
-3.2218037	ARE	-0.14809355
-4.3076773	NON-REFUNDABLE*	-0.07256129
-3.4818718	NOT	-0.11587007
-3.981255	RETURNABLE	-0.13659766
-4.3076773	RETURNABLE*	-0.07256129
-4.3076773	*GST	-0.07256129
-3.0833573	IN	-0.20204076
-4.3076773	*REDEEM	-0.07256129
-3.981255	VOUCHER	-0.07256129
-3.6205342	BEFORE	-0.11847674
-3.5456924	POINTS	-0.14466967
-4.3076773	EXPIRY!*	-0.07256129
-4.3076773	*RELIEF	-0.07256129
-3.981255	UNDER	-0.30265346
-4.1253304	SECTION	-0.07256129
-4.3076773	56(3)(B)GST	-0.07256129
-4.1253304	ACT	-0.22807278
-4.3076773	2014	-0.07256129
-4.3076773	*RUNCIT	-0.07256129
-4.1253304	*S	-0.22807278
-4.3076773	*SETTLED	-0.07256129
-3.2924776	AT	-0.098201536
-4.3076773	20/10/2016	-0.07256129
-4.3076773	3:08:19	-0.07256129
-4.3076773	PM*	-0.07256129
-4.3076773	*T3620000011000136498*	-0.07256129
-4.3076773	*T3620000011000140428*	-0.07256129
-4.3076773	*THANK	-0.07256129
-4.1253304	YOU,	-0.07256129
-3.981255	SEE	-0.30265346
-3.8254461	AGAIN	-0.20465688
-4.1253304	!!	-0.22807278
-4.1253304	YOU.	-0.07256131
-4.3076773	*TOTAL	-0.07256129
-3.5456924	QTY:	-0.21363972
-3.7110152	1.00	-0.19678093
-3.981255	4.00	-0.19563296
-4.3076773	+603-9130	-0.07256129
-4.3076773	2672	-0.07256129
-4.3076773	+607-357	-0.07256129
-4.3076773	1177	-0.07256129
-4.3076773	100X20G	-0.07256129
-3.8254461	AFTER	-0.07256131
-4.3076773	RO	-0.07256129
-4.1253304	TDS	-0.22807278
-4.1253304	ARTLINE	-0.07256129
-3.981255	70	-0.16982675
-4.3076773	CBE	-0.07256129
-3.1903584	A4	-0.11927979
-4.1253304	SIZE	-0.16982675
-3.8254461	20	-0.11847674
-4.3076773	POCKETS	-0.07256129
-4.3076773	REFILLABLE	-0.07256129
-4.1253304	NEW	-0.07256129
-4.1253304	BADGE	-0.16982675
-3.8254461	CLIP	-0.12827247
-4.3076773	100PCS	-0.07256129
-3.981255	DOUBLE	-0.07256129
-4.3076773	SIDED	-0.07256129
-3.981255	TISSUE	-0.07256129
-3.4818718	TAPE	-0.097002625
-4.3076773	18MM	-0.07256129
-4.1253304	EAGLE	-0.07256129
-4.3076773	F4	-0.07256129
-4.1253304	120	-0.07256129
-4.3076773	NUMBERING	-0.07256129
-4.3076773	FOOLSCAP	-0.07256129
-4.3076773	FASTER	-0.07256129
-4.1253304	CX5N	-0.07256129
-3.6205342	BALL	-0.1725443
-3.6205342	PEN	-0.10262606
-4.3076773	FEED	-0.07256129
-3.7110152	WATER	-0.11161263
-4.3076773	FEEDWATER	-0.07256129
-4.3076773	PRESSURE(PSI)	-0.07256129
-3.5456924	G	-0.07256129
-3.8254461	SOFT	-0.07256129
-4.3076773	6ML	-0.07256129
-4.3076773	QUICK	-0.07256129
-4.1253304	DRY	-0.07256129
-4.1253304	CORRECTION	-0.22807278
-4.1253304	IK	-0.22807278
-3.8254461	YELLOW	-0.12827247
-4.3076773	70GRAMS	-0.07256129
-4.3076773	JIANYU	-0.07256129
-4.3076773	STELL	-0.07256129
-4.1253304	RULER	-0.07256129
-4.3076773	30CM	-0.07256129
-4.3076773	THICK	-0.07256129
-4.3076773	LAMINATE	-0.07256129
-3.981255	FILM	-0.14339326
-4.3076773	NISO	-0.07256129
-4.1253304	LAMINATING	-0.22807278
-4.3076773	NOOR	-0.07256129
-4.1253304	FATIN	-0.07256129
-4.3076773	NAJIBAH	-0.07256129
-4.3076773	PAPYRUS	-0.07256129
-4.1253304	DARK	-0.07256129
-3.981255	COLOUR	-0.07256129
-3.4818718	PAPER	-0.10653483
-3.6205342	WONG	-0.14339326
-4.3076773	TAI	-0.07256129
-4.3076773	CHIN	-0.07256129
-4.3076773	-.01	-0.07256129
-4.3076773	-.02	-0.07256129
-4.3076773	-0.01	-0.07256129
-4.3076773	-0.02	-0.07256129
-4.3076773	-0.03	-0.07256129
-4.3076773	-0.04	-0.07256129
-4.3076773	-0.07	-0.07256129
-4.3076773	-0.17	-0.07256129
-4.3076773	-0.22	-0.07256129
-4.3076773	-0.24	-0.07256129
-4.3076773	-0.25	-0.07256129
-4.3076773	-0.29	-0.07256129
-4.3076773	-0.45	-0.07256129
-4.3076773	-0.72	-0.07256129
-4.3076773	-0.75	-0.07256129
-4.3076773	-0.78	-0.07256129
-4.3076773	-0.84	-0.07256129
-4.3076773	-0.89	-0.07256129
-4.3076773	-1	-0.07256129
-4.1253304	COOKIES	-0.07256129
-4.3076773	-1.00	-0.07256129
-4.3076773	-1.07	-0.07256129
-4.3076773	-1.10	-0.07256129
-4.3076773	-1.20	-0.07256129
-4.3076773	-1.25	-0.07256129
-4.3076773	-1.39	-0.07256129
-4.3076773	-1.58	-0.07256129
-4.3076773	-1.68	-0.07256129
-4.3076773	-1.73	-0.07256129
-4.3076773	-1.90	-0.07256129
-4.1253304	-10	-0.07256129
-4.3076773	-10.00	-0.07256129
-4.3076773	-100.00	-0.07256129
-4.3076773	-11.80	-0.07256129
-4.3076773	-11.97	-0.07256129
-4.3076773	-12.78	-0.07256129
-4.3076773	-12.95	-0.07256129
-4.3076773	-13.30	-0.07256129
-4.3076773	-13.87	-0.07256129
-4.3076773	-14.71	-0.07256129
-4.3076773	-16OZ	-0.07256129
-4.3076773	FOUNTAIN	-0.07256129
-4.3076773	DRIMK	-0.07256129
-4.3076773	-17.73	-0.07256129
-4.3076773	-18.80	-0.07256129
-4.3076773	-2	-0.07256129
-4.3076773	-2.13	-0.07256129
-4.3076773	-2.16	-0.07256129
-4.3076773	-2.37	-0.07256129
-4.3076773	-2.57	-0.07256129
-4.3076773	-2.75	-0.07256129
-4.3076773	-2.78	-0.07256129
-4.3076773	-2.88	-0.07256129
-4.3076773	-2.90	-0.07256129
-4.3076773	-2.98	-0.07256129
-4.3076773	-2.99	-0.07256129
-4.3076773	-20.00	-0.07256129
-4.3076773	-20.97	-0.07256129
-4.3076773	-28.90	-0.07256129
-4.3076773	-299.00	-0.07256129
-4.3076773	-3	-0.07256129
-4.3076773	-3.05	-0.07256129
-4.3076773	-3.36	-0.07256129
-4.3076773	-3.51	-0.07256129
-4.3076773	-3.60	-0.07256129
-4.3076773	-3.72	-0.07256129
-4.3076773	-3.80	-0.07256129
-4.3076773	-30.00	-0.07256129
-4.3076773	-300.00	-0.07256129
-4.3076773	-4.20	-0.07256129
-4.3076773	-4.69	-0.07256129
-4.3076773	-40.10	-0.07256129
-4.3076773	-5	-0.07256129
-4.3076773	-5.30	-0.07256129
-4.3076773	-5.40	-0.07256129
-4.3076773	-5.56	-0.07256129
-4.3076773	-5.59	-0.07256129
-4.3076773	-5.76	-0.07256129
-4.3076773	-5.94	-0.07256129
-4.3076773	-50.00	-0.07256129
-4.3076773	-51.00	-0.07256129
-4.3076773	-6	-0.07256129
-4.3076773	-6.00	-0.07256129
-4.3076773	-6.25	-0.07256129
-4.3076773	-6.40	-0.07256129
-4.3076773	-647.30	-0.07256129
-4.3076773	-7.00	-0.07256129
-4.3076773	-7.43	-0.07256129
-4.3076773	-7.44	-0.07256129
-4.3076773	-7.56	-0.07256129
-4.3076773	-7.74	-0.07256129
-4.3076773	-7.89	-0.07256129
-4.3076773	-73.30	-0.07256129
-4.3076773	-8	-0.07256129
-4.3076773	-8.00	-0.07256129
-4.3076773	-8.91	-0.07256129
-4.3076773	-9	-0.07256129
-4.3076773	-9.60	-0.07256129
-4.3076773	-9.62	-0.07256129
-4.3076773	-CARBON	-0.07256129
-4.3076773	FILTER	-0.07256129
-4.3076773	BP	-0.07256129
-4.3076773	SERIES	-0.07256129
-4.3076773	-INVOICE-	-0.07256129
-4.3076773	-RM	-0.07256129
-4.1253304	0.01	-0.22807278
-3.981255	0.02	-0.30265346
-4.3076773	-RM0.01	-0.07256129
-4.1253304	-RM0.02	-0.22807278
-4.3076773	-TAKE	-0.07256129
-3.7110152	AWAY	-0.40883586
-4.3076773	-TAX	-0.07256129
-4.1253304	INVOICE-	-0.22807278
-4.1253304	-UNIT	-0.07256129
-4.1253304	PEI	-0.16982675
-4.3076773	HAR	-0.07256129
-4.1253304	...	-0.07256129
-4.3076773	XPOSMART	-0.07256129
-4.1253304	WIFIPOS	-0.22807278
-4.1253304	SINCE	-0.07256129
-4.3076773	1985	-0.07256129
-4.3076773	...XPOSMART	-0.07256129
-4.3076773	1985...	-0.07256129
-4.3076773	.00	-0.07256129
-4.3076773	.01	-0.07256129
-4.3076773	.02	-0.07256129
-4.3076773	.10	-0.07256129
-4.3076773	.12	-0.07256129
-4.3076773	.14	-0.07256129
-4.3076773	.20	-0.07256129
-4.3076773	.21	-0.07256129
-4.3076773	.40	-0.07256129
-4.3076773	.57	-0.07256129
-4.3076773	.65	-0.07256129
-4.3076773	.76	-0.07256129
-4.3076773	.82	-0.07256129
-4.3076773	.90	-0.07256129
-4.3076773	.S	-0.07256129
-3.017486	/	-0.12886368
-3.4262395	LITRE	-0.31380138
-4.3076773	WWW.SURVEYMONKEY.COM/R/AEONCSIM	-0.07256129
-4.3076773	(MALL)	-0.07256129
-4.3076773	/D	-0.07256129
-4.3076773	z22	-0.07256129
-4.3076773	/EXCHANGABLE.	-0.07256129
-4.3076773	/LITRE	-0.07256129
-4.3076773	/S	-0.07256129
-4.3076773	z03	-0.07256129
-3.4262395	0%	-0.27588013
-4.1253304	RS	-0.07256129
-4.3076773	0+0	-0.07256129
-4.3076773	0.0	-0.07256129
-3.5456924	0.00	-0.4509055
-3.981255	0.00%	-0.16982675
-2.4468486	SR	-0.49461585
-4.3076773	0.00SR	-0.07256129
-4.3076773	0.01-	-0.07256129
-4.3076773	0.02-	-0.07256129
-4.3076773	0.03	-0.07256129
-4.3076773	0.05	-0.07256129
-4.3076773	0.07	-0.07256129
-4.3076773	0.08	-0.07256129
-4.1253304	0.10	-0.22807278
-4.3076773	0.11	-0.07256129
-4.3076773	0.13	-0.07256129
-4.3076773	0.14	-0.07256129
-4.3076773	0.15	-0.07256129
-4.3076773	0.17	-0.07256129
-4.1253304	0.19	-0.22807278
-4.3076773	0.20	-0.07256129
-4.3076773	0.20SR	-0.07256129
-4.3076773	0.22	-0.07256129
-4.3076773	0.23	-0.07256129
-4.3076773	0.24	-0.07256129
-4.3076773	0.25	-0.07256129
-4.3076773	0.26	-0.07256129
-4.3076773	0.27	-0.07256129
-4.1253304	0.28	-0.16982675
-4.3076773	0.29	-0.07256129
-4.3076773	0.29-	-0.07256129
-4.1253304	0.30	-0.22807278
-4.3076773	0.33	-0.07256129
-4.3076773	0.34	-0.07256129
-4.3076773	0.36	-0.07256129
-4.3076773	0.37	-0.07256129
-4.3076773	0.38	-0.07256129
-4.3076773	0.40	-0.07256129
-4.3076773	0.41	-0.07256129
-4.3076773	0.42	-0.07256129
-4.3076773	0.43	-0.07256129
-4.3076773	0.434	-0.07256129
-2.8235476	X	-0.13138784
-3.981255	39.90	-0.30265346
-4.3076773	0.45	-0.07256129
-4.3076773	0.46	-0.07256129
-4.3076773	0.48	-0.07256129
-4.3076773	0.49	-0.07256129
-4.1253304	0.50	-0.14339326
-4.1253304	0.51	-0.22807278
-4.3076773	0.53	-0.07256129
-4.3076773	0.54	-0.07256129
-4.3076773	0.55	-0.07256129
-4.3076773	0.56	-0.07256129
-4.3076773	0.57	-0.07256129
-4.3076773	0.58	-0.07256129
-4.3076773	0.59	-0.07256129
-4.3076773	0.60	-0.07256129
-4.3076773	0.61	-0.07256129
-4.3076773	0.63	-0.07256129
-4.3076773	0.64	-0.07256129
-4.3076773	0.65	-0.07256129
-4.3076773	0.66	-0.07256129
-4.3076773	0.68	-0.07256129
-4.3076773	0.69	-0.07256129
-4.1253304	0.70	-0.16982675
-4.1253304	26.70	-0.22807278
-4.1253304	0.72	-0.22807278
-4.3076773	0.73	-0.07256129
-4.3076773	0.74	-0.07256129
-4.1253304	0.75	-0.22807278
-4.3076773	0.7500	-0.07256129
-4.3076773	0.76	-0.07256129
-4.3076773	0.78	-0.07256129
-4.3076773	0.79	-0.07256129
-3.981255	0.80	-0.30265346
-4.3076773	0.83	-0.07256129
-4.1253304	0.84	-0.22807278
-4.3076773	0.85	-0.07256129
-4.3076773	0.86	-0.07256129
-4.1253304	0.87	-0.22807278
-4.3076773	0.9	-0.07256129
-3.8254461	3/4"	-0.19219674
-4.1253304	ALUMINIUM	-0.07256129
-3.7110152	ROD	-0.3296546
-4.3076773	0.90	-0.07256129
-4.3076773	0.91	-0.07256129
-4.3076773	0.94*2000	-0.07256129
-4.3076773	0.95	-0.07256129
-4.3076773	0.95*1	-0.07256129
-4.3076773	0.99	-0.07256129
-4.3076773	00.40	-0.07256129
-4.3076773	000	-0.07256129
-4.1253304	APPROVED	-0.22807278
-4.1253304	000-049909	-0.07256129
-3.8254461	[1]	-0.4275922
-4.3076773	000-074020	-0.07256129
-4.3076773	000000	-0.07256129
-4.1253304	000000135412	-0.22807278
-4.3076773	000000388658	-0.07256129
-4.3076773	0000007802317	-0.07256129
-4.3076773	000001011536	-0.07256129
-4.3076773	000001018506	-0.07256129
-4.3076773	000001020138429	-0.07256129
-4.1253304	000001038556	-0.22807278
-4.3076773	000001057436	-0.07256129
-4.3076773	000004023432	-0.07256129
-4.3076773	000005457342	-0.07256129
-4.3076773	000006429720	-0.07256129
-4.3076773	000006454333	-0.07256129
-4.3076773	000007773877	-0.07256129
-4.3076773	000008190901	-0.07256129
-4.3076773	000008204363	-0.07256129
-4.3076773	000008626349	-0.07256129
-4.3076773	00002348	-0.07256129
-4.3076773	00002479	-0.07256129
-3.981255	BUTTER	-0.07256129
-4.3076773	(4)	-0.07256129
-4.3076773	00002493	-0.07256129
-3.6205342	CHEESE	-0.07256129
-4.3076773	00004285	-0.07256129
-4.1253304	0001	-0.22807278
-4.3076773	00014960	-0.07256129
-4.1253304	RAISIN	-0.07256129
-3.8254461	ALMOND	-0.07256129
-3.981255	BREAD	-0.16982675
-4.3076773	00015047	-0.07256129
-4.3076773	10P01	-0.07256129
-4.3076773	000605	-0.07256129
-4.3076773	000613294080	-0.07256129
-4.3076773	000920	-0.07256129
-4.3076773	000965911P	-0.07256129
-3.7110152	001	-0.15677294
-4.3076773	001-2018-03-18	-0.07256129
-4.3076773	13:21:02	-0.07256129
-4.3076773	001-2018/02/22	-0.07256129
-4.3076773	13:34:27	-0.07256129
-4.3076773	001-3246	-0.07256129
-4.3076773	001-9822	-0.07256129
-3.981255	0010	-0.07256129
-4.3076773	001065	-0.07256129
-4.3076773	001211957248	-0.07256129
-4.3076773	001533	-0.07256129
-4.3076773	001697	-0.07256129
-4.3076773	001741	-0.07256129
-4.3076773	001781	-0.07256129
-4.1253304	002	-0.07256129
-4.3076773	002-2016/05/01	-0.07256129
-4.3076773	14:13:10	-0.07256129
-4.1253304	002017808384	-0.22807278
-4.3076773	0020324	-0.07256129
-3.6205342	PKT	-0.6036835
-4.3076773	0020329	-0.07256129
-4.3076773	002043319-W	-0.07256129
-4.3076773	002062543-P	-0.07256129
-4.3076773	002065464-X	-0.07256129
-4.3076773	002105827328	-0.07256129
-4.3076773	002115	-0.07256129
-4.3076773	002458685-T	-0.07256129
-4.3076773	0025679	-0.07256129
-3.981255	U	-0.16982675
-4.3076773	002570632-X	-0.07256129
-4.3076773	002882	-0.07256129
-4.3076773	00440010036	-0.07256129
-4.3076773	005001(BATANGKALI-1)	-0.07256129
-4.3076773	005002(BATANGKALI-2)	-0.07256129
-4.3076773	006	-0.07256129
-4.3076773	006828	-0.07256129
-4.3076773	0092000	-0.07256129
-3.7110152	GDN	-0.19219674
-3.7110152	500ML	-0.3296546
-4.3076773	LAI	-0.07256129
-4.3076773	01-11-17	-0.07256129
-4.3076773	01-143008	-0.07256129
-4.3076773	01-NOV-2017	-0.07256129
-4.3076773	11:20:04AM	-0.07256129
-4.3076773	R05934	-0.07256129
-4.3076773	01.10	-0.07256129
-4.3076773	01/04/2018	-0.07256129
-4.1253304	12:53	-0.22807278
-4.3076773	01/05/16	-0.07256129
-4.3076773	010100	-0.07256129
-4.1253304	PAY	-0.07256131
-3.8254461	PARKING	-0.07256131
-4.1253304	TICKET	-0.07256131
-4.3076773	010400058	-0.07256129
-4.3076773	010700031	-0.07256129
-4.3076773	010700060	-0.07256129
-4.3076773	010700098	-0.07256129
-4.3076773	011-3194	-0.07256129
-4.3076773	0284	-0.07256129
-4.3076773	011100029	-0.07256129
-4.3076773	012700007	-0.07256129
-4.3076773	01270100	-0.07256129
-4.1253304	013	-0.07256129
-4.1253304	SUMMER	-0.07256129
-4.3076773	48X230ML	-0.07256129
-4.3076773	013-336	-0.07256129
-4.3076773	3999	-0.07256129
-4.3076773	0139	-0.07256129
-4.3076773	016-5498845	-0.07256129
-4.3076773	016-5498845.	-0.07256129
-4.3076773	017-6057770	-0.07256129
-4.3076773	01:11PM	-0.07256129
-4.3076773	01:34PM	-0.07256129
-4.3076773	01:55:59	-0.07256129
-4.3076773	01:57PM	-0.07256129
-3.7110152	02	-0.27481422
-3.5456924	APR	-0.6706302
-3.6205342	2018	-0.15289451
-4.3076773	18:31	-0.07256129
-4.3076773	02-03-18	-0.07256129
-4.3076773	17:23	-0.07256129
-4.3076773	02-05-18	-0.07256129
-4.3076773	02.80	-0.07256129
-4.1253304	02/01/2018	-0.22807278
-4.3076773	02/02/2017	-0.07256129
-4.3076773	7:31:08	-0.07256129
-4.3076773	02/03/18	-0.07256129
-4.3076773	05:16	-0.07256129
-4.3076773	02/06/18	-0.07256129
-4.3076773	02/12/2017	-0.07256129
-4.3076773	02/JAN/2017	-0.07256129
-4.3076773	10:49:25	-0.07256129
-4.3076773	0235138	-0.07256129
-4.3076773	SARYANI	-0.07256129
-4.3076773	02472951053011038178353570??	-0.07256129
-4.3076773	0249	-0.07256129
-4.1253304	JULIES	-0.07256129
-4.3076773	PEANUT	-0.07256129
-2.2996538	S	-1.3104051
-4.3076773	0252828	-0.07256129
-3.6205342	PJ	-0.07256129
-4.1253304	CST	-0.07256129
-4.3076773	ZAHIR	-0.07256129
-4.3076773	0276649	-0.07256129
-4.3076773	ZUIKARNAIN	-0.07256129
-4.3076773	0293605	-0.07256129
-4.3076773	SHIVANESWARY	-0.07256129
-4.3076773	A/P	-0.07256129
-4.3076773	MANY	-0.07256129
-4.3076773	02992887002011018150387040??	-0.07256129
-4.3076773	02992887002011018176397900??	-0.07256129
-4.3076773	02:11:23	-0.07256129
-4.3076773	02:29:13	-0.07256129
-4.3076773	02:31PM	-0.07256129
-4.3076773	02:56PM	-0.07256129
-3.4262395	03	-0.25245026
-4.3076773	18:33	-0.07256129
-3.1903584	MAR	-0.7005935
-4.3076773	18:22	-0.07256129
-4.3076773	03-02-16	-0.07256129
-4.3076773	03-02-18	-0.07256129
-4.3076773	03-05-18	-0.07256129
-4.3076773	14:12	-0.07256129
-3.8254461	SH02	-0.14339326
-4.1253304	ZJ94	-0.22807278
-4.3076773	03-20782822	-0.07256129
-4.3076773	012-5389466	-0.07256129
-4.3076773	03-3279	-0.07256129
-4.3076773	1851,	-0.07256129
-4.3076773	03-41318972	-0.07256129
-4.3076773	03-60570314	-0.07256129
-4.3076773	03-60571377	-0.07256129
-3.981255	03-6258	-0.16982675
-4.3076773	7191	-0.07256129
-4.3076773	03-7845	-0.07256129
-4.3076773	8155	-0.07256129
-4.3076773	03-78459183	-0.07256129
-4.3076773	03-7880	-0.07256129
-4.3076773	5750	-0.07256129
-4.3076773	03-7932	-0.07256129
-4.3076773	1023/0191	-0.07256129
-4.3076773	03-8051	-0.07256129
-4.3076773	9514	-0.07256129
-4.3076773	03-8060	-0.07256129
-4.3076773	4233	-0.07256129
-4.1253304	03/02/2018	-0.07256129
-4.3076773	15:28	-0.07256129
-4.3076773	03/04/18	-0.07256129
-4.3076773	19:19	-0.07256129
-4.3076773	03/04/2018	-0.07256129
-4.1253304	03/05/2018	-0.07256129
-4.3076773	20:24	-0.07256129
-4.3076773	03/06/18	-0.07256129
-4.3076773	00:23	-0.07256129
-4.3076773	34001	-0.07256129
-4.3076773	5093	-0.07256129
-4.3076773	03/06/2017	-0.07256129
-4.3076773	5:02:54	-0.07256129
-4.3076773	0300892	-0.07256129
-4.3076773	HANIF	-0.07256129
-4.3076773	0301371	-0.07256129
-4.3076773	NORSHAM	-0.07256129
-3.981255	BINTI	-0.07256129
-4.3076773	AHAMED	-0.07256129
-4.3076773	SHA	-0.07256129
-4.3076773	03022	-0.07256129
-4.3076773	030249	-0.07256129
-4.3076773	0304023	-0.07256129
-4.3076773	NURNABILA	-0.07256129
-4.3076773	EMISHA	-0.07256129
-4.3076773	0304271	-0.07256129
-4.3076773	NORSYAZWANA	-0.07256129
-4.3076773	0304662	-0.07256129
-4.3076773	HEMADAS	-0.07256129
-4.3076773	A/L	-0.07256129
-4.3076773	BALOO	-0.07256129
-4.3076773	0305101	-0.07256129
-4.3076773	HALINA	-0.07256129
-4.3076773	0305215	-0.07256129
-4.3076773	DIANA	-0.07256129
-4.3076773	JASMAN	-0.07256129
-4.3076773	0306651	-0.07256129
-4.1253304	NUR	-0.07256129
-4.3076773	AYU	-0.07256129
-4.3076773	0306654	-0.07256129
-4.3076773	PAVITHRA	-0.07256129
-4.3076773	0307614	-0.07256129
-4.3076773	HAZIQ	-0.07256129
-4.3076773	037846	-0.07256129
-4.3076773	039170	-0.07256129
-4.3076773	03:16PM	-0.07256129
-4.3076773	03:46PM	-0.07256129
-3.981255	04	-0.07256129
-3.4262395	JUN	-0.5849271
-4.3076773	18:28	-0.07256129
-4.3076773	04-05-2018	-0.07256129
-4.3076773	16:07	-0.07256129
-4.3076773	04-06-18	-0.07256129
-4.1253304	04-06-2018	-0.07256129
-4.3076773	04/03/2018	-0.07256129
-4.3076773	15:41:52	-0.07256129
-4.3076773	04/06/2018	-0.07256129
-4.1253304	04/12/17	-0.07256129
-4.3076773	0412638	-0.07256129
-4.3076773	04:54	-0.07256129
-4.1253304	PM,	-0.07256129
-4.1253304	27	-0.07256129
-4.1253304	MARCH,	-0.22807278
-4.3076773	04:56PM	-0.07256129
-3.8254461	05	-0.07256131
-4.3076773	18:24	-0.07256129
-3.161037	MAY	-0.44784296
-3.6205342	18	-0.097002625
-4.3076773	18:06:40	-0.07256129
-4.1253304	18:21	-0.22807278
-4.3076773	05-02-18	-0.07256129
-4.3076773	05-05-17	-0.07256129
-4.3076773	05-05-18	-0.07256129
-4.3076773	05-06-2018	-0.07256129
-4.3076773	05-JAN-2017	-0.07256129
-4.3076773	03:17:50	-0.07256129
-4.3076773	05/03/18	-0.07256129
-4.3076773	15:02	-0.07256129
-4.3076773	05/SE200209/42193	-0.07256129
-4.3076773	050100035279	-0.07256129
-4.3076773	0515	-0.07256129
-4.3076773	SNEK	-0.07256129
-4.3076773	KU	-0.07256129
-4.1253304	TAM	-0.07256129
-4.3076773	CRAB	-0.07256129
-4.3076773	052949	-0.07256129
-4.3076773	05:23PM	-0.07256129
-4.3076773	05:36PM	-0.07256129
-4.3076773	05:38PM	-0.07256129
-4.3076773	06-04-16	-0.07256129
-4.3076773	11:53	-0.07256129
-2.97854	SH01	-0.2982504
-4.3076773	ZJ08	-0.07256129
-4.3076773	06-04-18	-0.07256129
-4.1253304	16:46	-0.22807278
-3.981255	ZJ86	-0.30265346
-4.3076773	06/02/18	-0.07256129
-4.3076773	06/03/2018	-0.07256129
-4.3076773	20:01	-0.07256129
-4.3076773	06/04/18	-0.07256129
-4.3076773	06/05/2018	-0.07256129
-4.3076773	14:29	-0.07256129
-4.3076773	15:33	-0.07256129
-4.3076773	06/07/16	-0.07256129
-4.3076773	13:54	-0.07256129
-4.3076773	z001-1105624z	-0.07256129
-4.3076773	060-	-0.07256129
-4.3076773	0649	-0.07256129
-4.3076773	TIC	-0.07256129
-4.3076773	TAC	-0.07256129
-4.3076773	CANDY	-0.07256129
-3.981255	MINT	-0.07256129
-4.3076773	(WH	-0.07256129
-4.3076773	066	-0.07256129
-4.3076773	MILD	-0.07256129
-4.1253304	FUZE	-0.22807278
-4.1253304	3IN1	-0.07256129
-4.1253304	MILO	-0.07256129
-4.3076773	06:20PM	-0.07256129
-4.3076773	06:34PM	-0.07256129
-4.3076773	06S	-0.07256129
-3.8254461	07	-0.15677294
-4.3076773	ZZ-207	-0.07256129
-4.3076773	COLEX	-0.07256129
-3.6205342	BLACK	-0.07256129
-4.1253304	BASIC	-0.07256129
-4.3076773	3865	-0.07256129
-4.3076773	879	-0.07256129
-4.3076773	3823455	-0.07256129
-4.1253304	MUSHROOM	-0.07256129
-3.8254461	SOUP	-0.2327446
-4.3076773	07-02-17	-0.07256129
-4.3076773	07-02-18	-0.07256129
-4.3076773	07-06-16	-0.07256129
-4.3076773	15:26	-0.07256129
-4.3076773	SH08	-0.07256129
-4.1253304	B019	-0.22807278
-4.3076773	07-2212888	-0.07256129
-4.3076773	07-355	-0.07256129
-4.3076773	2616	-0.07256129
-4.3076773	07/01/18	-0.07256129
-4.3076773	14:41	-0.07256129
-4.3076773	07/04/2018	-0.07256129
-4.3076773	18.10:59	-0.07256129
-4.3076773	07/04/2018-18:11:05	-0.07256129
-4.3076773	07/07/17	-0.07256129
-4.3076773	070100004	-0.07256129
-4.3076773	0715	-0.07256129
-4.3076773	KNORR	-0.07256129
-3.1903584	CHICKEN	-0.17163819
-4.3076773	STOCK	-0.07256129
-4.1253304	1K	-0.22807278
-4.3076773	073000190	-0.07256129
-4.3076773	078895129052	-0.07256129
-4.3076773	079567600084	-0.07256129
-4.3076773	07:13	-0.07256129
-4.3076773	07:44PM	-0.07256129
-4.3076773	07:49PM	-0.07256129
-4.3076773	07:54PM	-0.07256129
-4.3076773	08-01-16	-0.07256129
-4.3076773	11:55	-0.07256129
-4.3076773	08-01-2016	-0.07256129
-4.1253304	11:56	-0.22807278
-4.3076773	08-03-17	-0.07256129
-4.3076773	13:42	-0.07256129
-4.3076773	B028	-0.07256129
-4.1253304	08/02/2017	-0.07256129
-4.3076773	3:43:01	-0.07256129
-4.3076773	08/04/2018	-0.07256129
-4.3076773	03:09:12	-0.07256129
-4.3076773	14:26	-0.07256129
-4.3076773	0857	-0.07256129
-4.1253304	INDOCAFE	-0.22807278
-4.3076773	COFFEEMIX	-0.07256129
-4.3076773	3IN	-0.07256129
-4.3076773	086	-0.07256129
-4.3076773	GREENLINK	-0.07256129
-4.3076773	BIOTECH	-0.07256129
-4.3076773	BRIKE	-0.07256129
-4.3076773	08:10PM	-0.07256129
-4.3076773	08:25PM	-0.07256129
-4.3076773	08:48:09	-0.07256129
-4.3076773	08:53PM	-0.07256129
-4.1253304	09	-0.14339326
-4.3076773	18:26	-0.07256129
-4.1253304	09-04-2018	-0.07256129
-4.3076773	09/01/2019	-0.07256129
-4.3076773	8:01:11	-0.07256129
-4.3076773	09/02/2018	-0.07256129
-4.3076773	11:40	-0.07256129
-4.1253304	09/03/2018	-0.07256129
-4.3076773	21:28	-0.07256129
-4.3076773	09/04/2018	-0.07256129
-4.3076773	10:52	-0.07256129
-4.3076773	09/05/2018	-0.07256129
-4.1253304	09/06/2018	-0.07256129
-4.3076773	12:17:20	-0.07256129
-4.3076773	0900724	-0.07256129
-4.1253304	AZIZAH	-0.22807278
-4.3076773	09:04PM	-0.07256129
-4.3076773	09:06PM	-0.07256129
-4.3076773	09:13	-0.07256129
-4.3076773	AM,	-0.07256129
-3.981255	21	-0.07256129
-4.3076773	09:28PM	-0.07256129
-4.3076773	09:41PM	-0.07256129
-4.3076773	0I00	-0.07256129
-4.3076773	12/480	-0.07256129
-4.3076773	0Z02	-0.07256129
-4.3076773	12/48	-0.07256129
-4.3076773	0Z05	-0.07256129
-4.3076773	5/60	-0.07256129
-4.1253304	55.90	-0.22807278
-4.1253304	69.90	-0.22807278
-3.3769312	8	-0.2551829
-4.1253304	300	-0.07256129
-3.981255	888	-0.07256129
-4.3076773	333	-0.07256129
-3.981255	1/2"	-0.07256129
-4.3076773	SANCORA	-0.07256129
-3.5456924	PAINT	-0.20465688
-4.1253304	BRUSH	-0.07256129
-4.3076773	1/2"SAFETY	-0.07256129
-4.3076773	PIN	-0.07256129
-4.1253304	25MM	-0.07256129
-3.2557044	10	-0.25346985
-3.981255	WALL	-0.16982675
-3.7110152	PLUG	-0.16982675
-4.3076773	4NUGGETS	-0.07256129
-4.3076773	6NUGGETS	-0.07256129
-4.1253304	9NUGGETS	-0.22807278
-4.1253304	14.85	-0.22807278
-4.1253304	8.50	-0.16982675
-4.1253304	92.80	-0.22807278
-4.3076773	AYAMGORENG(TA)	-0.07256129
-4.1253304	B02	-0.22807278
-3.981255	HALF	-0.07256129
-4.1253304	BL	-0.07256129
-3.7110152	EGG	-0.11161263
-3.5456924	E	-0.341761
-4.3076773	BARBECUE	-0.07256129
-3.5456924	SAUCE	-0.29812852
-3.981255	BM	-0.07256129
-4.3076773	2HOTCAKES	-0.07256129
-4.3076773	CHOCTOP	-0.07256129
-4.3076773	CTN	-0.07256129
-4.1253304	D19	-0.22807278
-4.1253304	CHAM	-0.07256129
-4.3076773	(I)	-0.07256129
-4.1253304	FRENCH	-0.07256129
-4.1253304	GARLIC	-0.07256129
-4.3076773	CHAHAN	-0.07256129
-3.6205342	ICE	-0.23949108
-4.3076773	MOCHA	-0.07256129
-3.7110152	ITEM(S)	-0.41739646
-4.1253304	KG	-0.07256129
-3.7110152	L	-0.15564775
-4.3076773	100PLUS	-0.07256129
-3.6205342	COKE	-0.341761
-4.3076773	FILETOFISH	-0.07256129
-3.981255	FRIES	-0.30265346
-3.981255	MCCHICKEN	-0.30265346
-4.1253304	NASI	-0.07256129
-4.3076773	LEMAK	-0.07256129
-4.3076773	BURGER	-0.07256129
-4.3076773	SPRITE	-0.07256129
-3.4818718	M	-0.20204076
-4.3076773	ICELEMONTEA	-0.07256129
-4.3076773	PORRIDGE	-0.07256129
-4.3076773	MAJESTA	-0.07256129
-4.1253304	HSS	-0.07256129
-4.3076773	N22	-0.07256129
-4.3076773	SPRG	-0.07256129
-4.3076773	NDL+SU+CR	-0.07256129
-4.3076773	NIKU	-0.07256129
-4.3076773	SHOGAYAKI	-0.07256129
-3.2557044	SET	-0.45780295
-3.981255	PC	-0.16982675
-4.1253304	SABA	-0.07256129
-4.3076773	SHIOYAKI	-0.07256129
-3.981255	WAZEN	-0.16982675
-4.3076773	(20MINS)	-0.07256129
-4.3076773	SAMLL	-0.07256129
-4.1253304	CONE	-0.22807278
-4.3076773	SANDFLEX	-0.07256129
-4.1253304	SAW	-0.07256129
-4.3076773	ASARI	-0.07256129
-4.3076773	PASTA	-0.07256129
-4.3076773	SR'	-0.07256129
-4.3076773	9556405112205	-0.07256129
-3.8254461	SWEET	-0.07256129
-3.0602722	AND	-0.08407917
-4.1253304	UNAGI	-0.07256129
-3.981255	DON	-0.16982675
-4.1253304	UROKO	-0.07256129
-4.1253304	SALAD	-0.07256129
-3.981255	28.00	-0.19563296
-3.7110152	UTAMA	-0.14339326
-3.8254461	SHOPPING	-0.07256129
-4.3076773	CENTRE,	-0.07256129
-3.981255	1.90	-0.2327446
-4.1253304	10.50	-0.22807278
-4.1253304	10.90	-0.22807278
-3.981255	11.23	-0.30265346
-4.1253304	11.90	-0.22807278
-4.3076773	111.30	-0.07256129
-3.981255	12.50	-0.30265346
-4.1253304	12.61	-0.22807278
-4.1253304	13.50	-0.22807278
-3.981255	14.90	-0.2327446
-4.1253304	15.57	-0.22807278
-4.1253304	17.41	-0.07256129
-4.1253304	18.60	-0.07256129
-4.1253304	19.90	-0.22807278
-4.3076773	2.0000	-0.07256129
-4.3076773	2.2000	-0.07256129
-4.1253304	2.30	-0.16982675
-3.981255	2.50	-0.19563296
-4.1253304	2.64	-0.16982675
-4.1253304	2.69	-0.07256129
-4.1253304	2.70	-0.14339326
-4.1253304	2.90	-0.16982675
-4.1253304	22.90	-0.16982675
-3.981255	23.90	-0.30265346
-4.1253304	24.90	-0.22807278
-4.1253304	25.90	-0.22807278
-4.1253304	26.90	-0.22807278
-4.1253304	29.90	-0.16982675
-4.3076773	3.0000	-0.07256129
-3.981255	3.30	-0.2327446
-4.3076773	3.5000	-0.07256129
-4.3076773	3.7000	-0.07256129
-3.8254461	3.90	-0.4275922
-4.3076773	3.9000	-0.07256129
-4.1253304	33.90	-0.07256129
-4.1253304	35.00	-0.22807278
-4.3076773	35.0000	-0.07256129
-4.3076773	36.0000	-0.07256129
-4.1253304	4.45	-0.16982675
-4.3076773	4.5000	-0.07256129
-4.3076773	5.6000	-0.07256129
-4.1253304	6.30	-0.22807278
-4.1253304	6.50	-0.22807278
-4.1253304	63.00	-0.22807278
-4.1253304	7.30	-0.16982675
-4.1253304	7.50	-0.12827247
-4.1253304	9.50	-0.22807278
-3.981255	1"	-0.07256129
-4.3076773	VALVE	-0.07256129
-4.1253304	NYLON	-0.07256129
-4.3076773	BRUSH.	-0.07256129
-4.3076773	1)	-0.07256129
-4.3076773	SAJI	-0.07256129
-3.981255	MINYAK	-0.16982675
-4.3076773	MASAK	-0.07256129
-4.3076773	5KG(Z)	-0.07256129
-4.3076773	(BTL)	-0.07256129
-4.3076773	1)9557892102639	-0.07256129
-4.3076773	IBUPROFEN	-0.07256129
-4.3076773	400MG	-0.07256129
-3.3769312	1,	-0.3710473
-2.362512	JALAN	-0.17235355
-3.5456924	DESA	-0.1964618
-4.3076773	TEBRAU,	-0.07256129
-4.1253304	SUTERA	-0.07256129
-4.3076773	TANJUNG	-0.07256129
-4.3076773	8/4,	-0.07256129
-4.3076773	1,007.50	-0.07256129
-4.3076773	1,100.00	-0.07256129
-4.3076773	1,124	-0.07256129
-4.3076773	1,200	-0.07256129
-4.3076773	1,201	-0.07256129
-4.1253304	1.	-0.07256131
-4.3076773	2000-0063	-0.07256129
-4.3076773	2000-0240	-0.07256129
-4.3076773	2002-0001	-0.07256129
-4.3076773	2005-0263	-0.07256129
-4.3076773	2008-0040	-0.07256129
-4.3076773	2011-0025	-0.07256129
-4.3076773	2012-0013	-0.07256129
-4.3076773	2012-0021	-0.07256129
-4.1253304	2012-0029	-0.22807278
-4.3076773	2012-0043	-0.07256129
-4.3076773	2022-0124	-0.07256129
-4.3076773	2046-0021	-0.07256129
-4.3076773	3.5	-0.07256129
-3.981255	MAX	-0.07256129
-4.1253304	COATING	-0.07256129
-4.3076773	5000-0001	-0.07256129
-4.1253304	7002-0014	-0.22807278
-3.8254461	ALL	-0.09491249
-4.3076773	FINAL.	-0.07256129
-3.3769312	GOODS	-0.1838718
-3.7110152	REFUNDABLE	-0.29748303
-3.3769312	OR	-0.119681835
-4.1253304	10-1M	-0.07256129
-4.3076773	STAPLES	-0.07256129
-3.6205342	MUST	-0.47578266
-3.4262395	BE	-0.1443502
-4.3076773	PRESENTED	-0.07256129
-4.3076773	1.0	-0.07256129
-3.8254461	ITEMS:	-0.13492793
-3.4818718	PCS	-0.4275922
-4.1253304	21.32	-0.22807278
-4.1253304	28.60	-0.22807278
-3.1335707	ZRL	-0.6338942
-4.3076773	1.000	-0.07256129
-4.1253304	1.0000	-0.22807278
-4.1253304	1.01	-0.22807278
-4.3076773	1.02	-0.07256129
-4.3076773	1.06	-0.07256129
-4.3076773	1.07	-0.07256129
-4.3076773	1.08	-0.07256129
-4.3076773	1.09	-0.07256129
-4.3076773	1.10	-0.07256129
-4.3076773	1.12	-0.07256129
-4.3076773	1.13	-0.07256129
-4.3076773	1.16	-0.07256129
-4.3076773	1.18	-0.07256129
-4.1253304	1.19	-0.22807278
-4.3076773	1.2	-0.07256129
-4.3076773	1.20	-0.07256129
-4.3076773	1.21	-0.07256129
-4.3076773	1.22	-0.07256129
-4.3076773	1.25	-0.07256129
-4.3076773	1.27	-0.07256129
-4.3076773	1.28	-0.07256129
-3.981255	1.30	-0.19563296
-4.3076773	1.31	-0.07256129
-4.3076773	1.32	-0.07256129
-4.3076773	1.33	-0.07256129
-4.3076773	1.36	-0.07256129
-4.3076773	1.38	-0.07256129
-4.3076773	1.40	-0.07256129
-4.3076773	1.40*1	-0.07256129
-4.3076773	1.41	-0.07256129
-4.3076773	1.42	-0.07256129
-4.3076773	1.42)	-0.07256129
-4.3076773	1.48	-0.07256129
-4.3076773	1.49	-0.07256129
-4.1253304	1.50	-0.14339326
-4.3076773	1.5000	-0.07256129
-4.1253304	1.51	-0.07256129
-4.3076773	1.53	-0.07256129
-4.3076773	1.54	-0.07256129
-4.3076773	1.55	-0.07256129
-4.3076773	1.56	-0.07256129
-4.3076773	1.57	-0.07256129
-4.1253304	1.58	-0.22807278
-4.3076773	1.5KG.	-0.07256129
-4.3076773	UFIXX	-0.07256129
-4.3076773	PUTTY	-0.07256129
-4.3076773	FILLER.	-0.07256129
-4.3076773	1.60	-0.07256129
-4.3076773	1.61	-0.07256129
-4.3076773	1.62	-0.07256129
-4.3076773	1.64	-0.07256129
-4.3076773	1.65	-0.07256129
-4.3076773	1.66	-0.07256129
-4.3076773	1.68	-0.07256129
-4.3076773	1.69	-0.07256129
-4.3076773	1.70	-0.07256129
-4.3076773	1.71	-0.07256129
-4.3076773	1.72	-0.07256129
-4.3076773	1.75	-0.07256129
-4.3076773	1.76	-0.07256129
-4.3076773	1.78	-0.07256129
-4.3076773	1.79	-0.07256129
-3.8254461	1.80	-0.27481422
-4.3076773	1.80SR	-0.07256129
-4.3076773	1.82	-0.07256129
-4.3076773	1.84	-0.07256129
-4.3076773	1.84-	-0.07256129
-4.3076773	1.85	-0.07256129
-4.3076773	1.89	-0.07256129
-2.9428005	T	-0.84155107
-4.3076773	1.93	-0.07256129
-4.3076773	1.98	-0.07256129
-3.8254461	PVC	-0.07256131
-4.3076773	BIB	-0.07256129
-3.981255	TAP	-0.07256129
-4.1253304	??	-0.22807278
-4.3076773	1/4	-0.07256129
-4.3076773	CHIC+	-0.07256129
-4.3076773	1SD-T	-0.07256129
-4.1253304	17.90	-0.22807278
-4.3076773	1/4-H	-0.07256129
-4.3076773	1/4-M	-0.07256129
-4.3076773	1/8"-3/4"	-0.07256129
-4.1253304	12PCS	-0.07256129
-4.3076773	HOLLOW	-0.07256129
-3.981255	PUNCH	-0.16982675
-4.3076773	GRAM	-0.07256129
-4.3076773	GOURMET	-0.07256129
-4.3076773	SBN	-0.07256129
-3.5456924	BHD	-0.12386325
-4.3076773	18:23	-0.07256129
-4.3076773	12:32	-0.07256129
-4.1253304	SUBTOTAL	-0.11847674
-4.3076773	10"WING	-0.07256129
-4.3076773	COMPASS	-0.07256129
-3.7110152	10%	-0.23949108
-4.3076773	SRV	-0.07256129
-3.8254461	CHG	-0.2327446
-4.3076773	10'2X3	-0.07256129
-4.3076773	10-04-2018	-0.07256129
-4.3076773	08:11:53	-0.07256129
-4.3076773	10-05-17	-0.07256129
-4.3076773	10-05-2017	-0.07256129
-4.3076773	10-18,JLN	-0.07256129
-3.981255	KEBUDAYAAN	-0.07256129
-4.3076773	16,TMN	-0.07256129
-3.981255	10.00	-0.15677294
-4.1253304	10.00%	-0.22807278
-4.3076773	10.00SR	-0.07256129
-4.3076773	10.03	-0.07256129
-4.3076773	10.07	-0.07256129
-4.3076773	10.08	-0.07256129
-4.3076773	10.09	-0.07256129
-4.3076773	10.10	-0.07256129
-4.3076773	10.14	-0.07256129
-4.3076773	10.20	-0.07256129
-4.3076773	10.28	-0.07256129
-4.3076773	10.28SR	-0.07256129
-4.3076773	10.30	-0.07256129
-4.3076773	10.38	-0.07256129
-4.1253304	10.40	-0.22807278
-4.3076773	10.44	-0.07256129
-4.3076773	10.45SR	-0.07256129
-4.3076773	10.50SR	-0.07256129
-4.3076773	10.57	-0.07256129
-4.1253304	10.60	-0.22807278
-4.3076773	10.61	-0.07256129
-4.3076773	10.74	-0.07256129
-4.3076773	10.75	-0.07256129
-4.3076773	10.80	-0.07256129
-4.3076773	10.85	-0.07256129
-4.3076773	10.90ZR	-0.07256129
-4.3076773	10.94	-0.07256129
-4.3076773	10.99*1.306	-0.07256129
-4.1253304	10/03/2018	-0.22807278
-4.1253304	10/04/2017	-0.22807278
-4.3076773	10/06/2018	-0.07256129
-4.3076773	10/500	-0.07256129
-3.7110152	100	-0.1725443
-4.3076773	0.1000	-0.07256129
-4.3076773	100z	-0.07256129
-4.3076773	4L	-0.07256129
-4.3076773	COMPRESSOR	-0.07256129
-3.981255	OIL	-0.07256129
-4.3076773	TIN	-0.07256129
-4.3076773	8"	-0.07256129
-4.3076773	45M	-0.07256129
-4.3076773	SAND	-0.07256129
-4.3076773	ROLL.	-0.07256129
-3.981255	100'S	-0.16982675
-4.3076773	20.0000	-0.07256129
-4.1253304	100.00	-0.14339326
-3.4818718	C	-0.39439303
-4.1253304	K	-0.14339326
-4.1253304	100.10	-0.22807278
-4.3076773	100.15	-0.07256129
-4.3076773	100.20	-0.07256129
-4.3076773	100.60	-0.07256129
-4.3076773	100.62	-0.07256129
-4.3076773	100.88	-0.07256129
-4.3076773	100.90	-0.07256129
-4.3076773	1000004587104	-0.07256129
-4.3076773	1000070	-0.07256129
-4.3076773	1000131-K	-0.07256129
-4.3076773	1000219	-0.07256129
-4.3076773	100135	-0.07256129
-4.3076773	100140	-0.07256129
-4.3076773	100160	-0.07256129
-4.3076773	100211	-0.07256129
-4.3076773	1006	-0.07256129
-4.3076773	1008	-0.07256129
-4.3076773	0010139	-0.07256129
-4.3076773	0010325	-0.07256129
-4.3076773	0010555	-0.07256129
-4.3076773	210	-0.07256129
-4.3076773	2100090	-0.07256129
-4.3076773	1009	-0.07256129
-4.3076773	0010447	-0.07256129
-4.1253304	026	-0.07256129
-4.3076773	0260073	-0.07256129
-4.1253304	101	-0.07256129
-3.7110152	NOODLE	-0.11847674
-4.3076773	O.T.ROCK	-0.07256129
-4.3076773	101.00	-0.07256129
-4.3076773	101.75	-0.07256129
-4.3076773	101.76	-0.07256129
-4.3076773	1010	-0.07256129
-4.3076773	007	-0.07256129
-4.3076773	0070177	-0.07256129
-4.3076773	0070265	-0.07256129
-4.3076773	008	-0.07256129
-4.3076773	0080567	-0.07256129
-4.3076773	017	-0.07256129
-4.3076773	0170023	-0.07256129
-4.3076773	0260452	-0.07256129
-4.3076773	101110	-0.07256129
-4.1253304	LE	-0.07256129
-4.3076773	1012	-0.07256129
-4.3076773	1013	-0.07256129
-4.3076773	313	-0.07256129
-4.3076773	3130177	-0.07256129
-4.3076773	1015	-0.07256129
-4.3076773	10157	-0.07256129
-4.3076773	101756	-0.07256129
-4.3076773	10182079	-0.07256129
-4.3076773	101870	-0.07256129
-4.3076773	102	-0.07256129
-4.3076773	102.00	-0.07256129
-4.3076773	102.36	-0.07256129
-4.3076773	102.39	-0.07256129
-4.3076773	102.40	-0.07256129
-4.3076773	102193	-0.07256129
-4.3076773	102749	-0.07256129
-4.3076773	103.49	-0.07256129
-4.3076773	103.77	-0.07256129
-4.3076773	103.77*	-0.07256129
-4.3076773	1030214K	-0.07256129
-4.3076773	1032-SUBANG	-0.07256129
-3.981255	PERDANA	-0.14339326
-4.3076773	1033	-0.07256129
-4.3076773	1037	-0.07256129
-4.3076773	104	-0.07256129
-4.3076773	(DOZEN)	-0.07256129
-4.3076773	104.00	-0.07256129
-4.1253304	10400	-0.22807278
-4.1253304	PENANG.	-0.22807278
-4.3076773	1041	-0.07256129
-4.3076773	1042	-0.07256129
-4.3076773	105.00	-0.07256129
-4.1253304	105.57	-0.22807278
-4.3076773	105.66	-0.07256129
-4.3076773	1050	-0.07256129
-4.3076773	1059	-0.07256129
-4.3076773	18W	-0.07256129
-4.3076773	SQ	-0.07256129
-4.1253304	WW	-0.07256129
-3.8254461	BK	-0.14339326
-4.3076773	SUR	-0.07256129
-3.8254461	LED	-0.07256129
-4.1253304	LIGHT	-0.22807278
-4.3076773	106-107,	-0.07256129
-3.6205342	LEVEL	-0.11161263
-4.1253304	MINES	-0.07256129
-4.1253304	SERDANG	-0.07256129
-4.3076773	106.00	-0.07256129
-4.3076773	106.10	-0.07256129
-4.3076773	106.90	-0.07256129
-4.3076773	106766	-0.07256129
-4.3076773	106B	-0.07256129
-3.981255	COLD	-0.16982675
-4.3076773	107,	-0.07256129
-3.1903584	BANDAR	-0.17819917
-3.981255	RAWANG	-0.07256129
-3.1903584	2,	-0.37172425
-4.3076773	107.36	-0.07256129
-4.3076773	1071	-0.07256129
-4.1253304	1072	-0.07256129
-4.3076773	1076-IJOK	-0.07256129
-4.3076773	108.00	-0.07256129
-4.3076773	108.12	-0.07256129
-4.3076773	108.50	-0.07256129
-4.3076773	1080323	-0.07256129
-4.3076773	10886	-0.07256129
-4.3076773	109,	-0.07256129
-4.3076773	SS21/1A,	-0.07256129
-4.3076773	109.70	-0.07256129
-4.3076773	1097	-0.07256129
-4.3076773	1098	-0.07256129
-4.3076773	1099	-0.07256129
-4.3076773	10:12AM	-0.07256129
-4.3076773	10:20:00	-0.07256129
-3.2924776	AM	-0.70986587
-4.3076773	10:23	-0.07256129
-4.3076773	10:24:42	-0.07256129
-4.3076773	10:29	-0.07256129
-4.3076773	10:35	-0.07256129
-4.3076773	10:36:13	-0.07256129
-4.3076773	10:38	-0.07256129
-4.3076773	10:49	-0.07256129
-4.3076773	10:51	-0.07256129
-4.3076773	10:54	-0.07256129
-3.4818718	11	-0.23982933
-4.1253304	44	-0.14339326
-4.3076773	18:13	-0.07256129
-4.3076773	18:32	-0.07256129
-3.7110152	UNIT	-0.119681835
-4.3076773	11-(BEPROGENT	-0.07256129
-3.6205342	CR	-0.07256129
-4.3076773	LS)	-0.07256129
-4.3076773	30G	-0.07256129
-4.3076773	11-03-2018	-0.07256129
-4.3076773	11-04-18	-0.07256129
-4.3076773	17:42	-0.07256129
-4.3076773	11-05-16	-0.07256129
-4.3076773	11-06-18	-0.07256129
-4.3076773	17:17	-0.07256129
-4.1253304	B003	-0.22807278
-4.1253304	11-06-2018	-0.07256129
-4.3076773	11.00	-0.07256129
-4.3076773	11.02.18	-0.07256129
-4.3076773	14:08	-0.07256129
-4.3076773	11.05	-0.07256129
-4.3076773	11.10	-0.07256129
-4.3076773	11.12	-0.07256129
-4.3076773	11.13	-0.07256129
-4.3076773	11.16	-0.07256129
-4.3076773	11.20	-0.07256129
-4.1253304	11.25	-0.22807278
-4.3076773	11.25SR	-0.07256129
-4.3076773	11.32	-0.07256129
-4.1253304	11.40	-0.22807278
-4.3076773	11.44	-0.07256129
-4.1253304	11.50	-0.22807278
-4.3076773	11.53	-0.07256129
-4.3076773	11.60	-0.07256129
-4.3076773	11.68	-0.07256129
-4.3076773	11.72	-0.07256129
-4.3076773	11.76	-0.07256129
-4.3076773	11.80	-0.07256129
-4.3076773	11.88	-0.07256129
-4.3076773	11/02/16	-0.07256129
-4.3076773	11/03/18	-0.07256129
-4.3076773	16:30	-0.07256129
-4.3076773	11/03/2018	-0.07256129
-4.3076773	06:20	-0.07256129
-3.981255	11/05/2018	-0.14339326
-4.3076773	08:35:58	-0.07256129
-4.3076773	11/08/2017	-0.07256129
-4.3076773	11/12/2017	-0.07256129
-4.3076773	110	-0.07256129
-4.3076773	110.00	-0.07256129
-4.3076773	11046	-0.07256129
-4.3076773	110MM	-0.07256129
-4.3076773	5.8M	-0.07256129
-4.3076773	UNDERGROUND	-0.07256129
-4.1253304	PIPE	-0.07256129
-4.3076773	1113	-0.07256129
-4.3076773	112.35	-0.07256129
-4.3076773	112.45	-0.07256129
-4.3076773	112.92	-0.07256129
-3.7110152	113	-0.27481422
-3.2924776	CASHIER	-0.34695327
-4.3076773	COCONUT	-0.07256129
-4.3076773	113.80	-0.07256129
-4.3076773	113.90	-0.07256129
-4.3076773	113355	-0.07256129
-4.3076773	1145	-0.07256129
-4.3076773	115.00	-0.07256129
-4.3076773	116.28	-0.07256129
-4.3076773	116.60	-0.07256129
-4.3076773	117,	-0.07256129
-4.1253304	RADIN	-0.07256129
-4.3076773	BAGUS,	-0.07256129
-3.3769312	SRI	-0.09491249
-3.4262395	PETALING	-0.362359
-4.3076773	1174-PERMATA	-0.07256129
-4.3076773	MAGNA	-0.07256129
-4.3076773	118	-0.07256129
-4.3076773	118.35	-0.07256129
-4.3076773	1181-TMN	-0.07256129
-4.3076773	SINAR	-0.07256129
-4.3076773	119.77	-0.07256129
-4.3076773	11:00	-0.07256129
-4.3076773	11:01:00	-0.07256129
-4.1253304	11:06	-0.22807278
-4.3076773	11:07	-0.07256129
-4.3076773	11:08	-0.07256129
-4.3076773	11:09	-0.07256129
-4.3076773	11:10	-0.07256129
-4.3076773	11:11	-0.07256129
-4.3076773	11:12:56AM	-0.07256129
-3.981255	11:18	-0.16982675
-4.3076773	11:19	-0.07256129
-4.3076773	11:27	-0.07256129
-4.3076773	11:28	-0.07256129
-4.3076773	11:29	-0.07256129
-4.3076773	11:34:45	-0.07256129
-4.3076773	11:39	-0.07256129
-4.1253304	11:43	-0.22807278
-4.3076773	11:44	-0.07256129
-4.3076773	11:45	-0.07256129
-4.3076773	11:52	-0.07256129
-4.3076773	11:54	-0.07256129
-4.3076773	11:57:00	-0.07256129
-4.1253304	11:59	-0.07256129
-4.3076773	11L	-0.07256129
-3.3769312	12	-0.20082523
-4.1253304	31	-0.07256129
-4.3076773	00	-0.07256129
-4.1253304	COLORS	-0.07256129
-3.981255	GOLD	-0.07256129
-4.3076773	DUST	-0.07256129
-4.3076773	PENGACARA	-0.07256129
-4.3076773	U1/48	-0.07256129
-4.1253304	18:18	-0.22807278
-4.3076773	18:19	-0.07256129
-4.1253304	12,	-0.07256129
-4.3076773	TANJUNG,	-0.07256129
-4.3076773	TAMPOI	-0.07256129
-4.3076773	7/4,KAWASAN	-0.07256129
-3.8254461	PERINDUSTRIAN	-0.10653483
-4.3076773	12-01-19	-0.07256129
-4.3076773	21:13	-0.07256129
-4.3076773	ZK09	-0.07256129
-4.3076773	12-03-18	-0.07256129
-4.3076773	14:37	-0.07256129
-4.3076773	B011	-0.07256129
-4.3076773	12-DINE	-0.07256129
-3.981255	12.00	-0.1725443
-3.981255	SR0	-0.2327446
-2.9259765	Z	-0.7008691
-4.3076773	12.06	-0.07256129
-4.3076773	12.19	-0.07256129
-4.3076773	12.24	-0.07256129
-4.1253304	12.30	-0.22807278
-4.3076773	12.36	-0.07256129
-4.3076773	12.37	-0.07256129
-4.3076773	12.40	-0.07256129
-4.3076773	12.50*2	-0.07256129
-4.3076773	12.50ZR	-0.07256129
-4.3076773	12.51	-0.07256129
-4.3076773	12.60	-0.07256129
-4.3076773	12.72	-0.07256129
-4.3076773	12.74	-0.07256129
-4.3076773	12.78	-0.07256129
-4.3076773	12.80	-0.07256129
-4.3076773	12.82	-0.07256129
-4.3076773	12.90	-0.07256129
-4.3076773	12.95	-0.07256129
-4.3076773	12.96	-0.07256129
-4.3076773	12.98	-0.07256129
-4.3076773	12.99	-0.07256129
-4.3076773	12/01/18	-0.07256129
-4.1253304	12/01/2018	-0.22807278
-4.3076773	12/03/18	-0.07256129
-3.981255	12/03/2018	-0.07256129
-4.3076773	13:07	-0.07256129
-4.3076773	12/04/2018	-0.07256129
-4.3076773	12/05/18	-0.07256129
-4.3076773	12:12:57	-0.07256129
-4.3076773	12:13:17	-0.07256129
-4.3076773	12/06/2018	-0.07256129
-4.3076773	19:40	-0.07256129
-3.981255	120.00	-0.16982675
-4.3076773	120000143	-0.07256129
-4.3076773	1202152-P	-0.07256129
-4.3076773	12089	-0.07256129
-4.3076773	121.90	-0.07256129
-4.3076773	121056217	-0.07256129
-4.3076773	PRINGLES	-0.07256129
-4.3076773	SUUR/CR	-0.07256129
-4.3076773	121062680	-0.07256129
-3.6205342	PLUS	-0.07256129
-4.3076773	121066051	-0.07256129
-4.3076773	121087265	-0.07256129
-4.3076773	HK	-0.07256129
-4.1253304	BX	-0.07256129
-4.3076773	TISS	-0.07256129
-4.3076773	PO4	-0.07256129
-4.3076773	121093307	-0.07256129
-4.3076773	TISSU	-0.07256129
-4.3076773	4X150	-0.07256129
-4.3076773	121095079	-0.07256129
-4.1253304	MC	-0.07256129
-4.3076773	H/W	-0.07256129
-4.3076773	ENC	-0.07256129
-4.3076773	ROM	-0.07256129
-4.3076773	121095081	-0.07256129
-4.3076773	N/DREAM	-0.07256129
-4.3076773	121095623	-0.07256129
-4.3076773	CMINT	-0.07256129
-4.3076773	H/WASHP3	-0.07256129
-4.3076773	12131	-0.07256129
-4.3076773	12133	-0.07256129
-4.3076773	1214-JINJANG	-0.07256129
-3.981255	UTARA	-0.14339326
-4.3076773	122	-0.07256129
-4.1253304	18.90	-0.22807278
-4.3076773	122.00	-0.07256129
-4.3076773	122.64	-0.07256129
-4.3076773	122.78	-0.07256129
-4.3076773	1227039	-0.07256129
-3.981255	123	-0.16982675
-4.3076773	1237-TMN	-0.07256129
-3.3769312	INDAH	-0.19678093
-4.3076773	PERDANA.	-0.07256129
-4.3076773	1241045-D	-0.07256129
-4.3076773	1243-JLN	-0.07256129
-4.3076773	PUDU	-0.07256129
-4.1253304	ULU	-0.07256129
-4.3076773	1245-DESA	-0.07256129
-4.3076773	HARTAMAS	-0.07256129
-4.3076773	1249-TMN	-0.07256129
-3.981255	PANDAN	-0.07256129
-4.3076773	CAHAYA	-0.07256129
-4.3076773	12525	-0.07256129
-4.3076773	125A	-0.07256129
-4.3076773	TINGKAT	-0.07256129
-4.3076773	BAWAH	-0.07256129
-4.1253304	PT	-0.07256129
-4.3076773	1961	-0.07256129
-4.3076773	MALINJA	-0.07256129
-4.3076773	127.20	-0.07256129
-4.3076773	127.35	-0.07256129
-4.3076773	127.37	-0.07256129
-4.3076773	129,	-0.07256129
-3.981255	TUN	-0.07256129
-4.3076773	H.S	-0.07256129
-4.3076773	LEE,	-0.07256129
-4.3076773	129.30	-0.07256129
-4.3076773	1299-SUBANG	-0.07256129
-4.3076773	PERMAI	-0.07256129
-4.3076773	12:06:00	-0.07256129
-4.3076773	12:07	-0.07256129
-4.3076773	12:07:10	-0.07256129
-4.3076773	12:11	-0.07256129
-4.3076773	12:12	-0.07256129
-4.3076773	12:12:21	-0.07256129
-4.3076773	12:16	-0.07256129
-4.3076773	12:17	-0.07256129
-4.3076773	12:17:26	-0.07256129
-4.3076773	12:26	-0.07256129
-4.3076773	12:29	-0.07256129
-4.3076773	12:30	-0.07256129
-4.3076773	12:32:00	-0.07256129
-4.3076773	12:35	-0.07256129
-4.3076773	12:44	-0.07256129
-4.3076773	12:45	-0.07256129
-4.3076773	12:52:21	-0.07256129
-4.3076773	12:59:16	-0.07256129
-4.3076773	12M	-0.07256129
-3.981255	WIRE	-0.07256129
-4.3076773	ROPE	-0.07256129
-3.6205342	13	-0.26264885
-4.1253304	49	-0.07256129
-4.1253304	13,	-0.07256129
-3.0833573	JLN	-0.09287542
-3.981255	TASIK	-0.16982675
-4.3076773	13-05-18	-0.07256129
-4.1253304	13-06-2018	-0.07256129
-4.3076773	13-1,	-0.07256129
-3.981255	PJU	-0.07256129
-4.3076773	5/10,	-0.07256129
-4.3076773	13.00	-0.07256129
-4.3076773	13.05	-0.07256129
-4.3076773	13.10	-0.07256129
-4.3076773	13.15	-0.07256129
-4.3076773	13.21	-0.07256129
-4.3076773	13.25	-0.07256129
-4.1253304	13.30	-0.22807278
-4.3076773	13.53ZR	-0.07256129
-4.3076773	13.56	-0.07256129
-4.3076773	13.57	-0.07256129
-4.3076773	13.58	-0.07256129
-4.3076773	13.60	-0.07256129
-4.3076773	13.68	-0.07256129
-4.3076773	13.76	-0.07256129
-4.3076773	13.78	-0.07256129
-4.3076773	13.80	-0.07256129
-4.3076773	13.81	-0.07256129
-4.3076773	13.86SR	-0.07256129
-4.1253304	13.90	-0.22807278
-4.3076773	13.90*1	-0.07256129
-4.3076773	13.94ZR	-0.07256129
-4.1253304	13/04/2018	-0.07256129
-4.3076773	13/06/2018	-0.07256129
-4.3076773	13/10/2017	-0.07256129
-4.1253304	130	-0.07256129
-4.1253304	16.90	-0.16982675
-4.3076773	PLAINRICE	-0.07256129
-4.3076773	130.00	-0.07256129
-4.3076773	131.40	-0.07256129
-4.3076773	1313-SUBANG	-0.07256129
-3.981255	BESTARI	-0.07256129
-4.3076773	1317	-0.07256129
-4.3076773	TRILLIUM	-0.07256129
-3.981255	S6	-0.07256129
-3.981255	BESI	-0.14339326
-4.3076773	1320-TMN	-0.07256129
-3.2924776	BATU	-0.07256129
-4.3076773	133.96	-0.07256129
-4.3076773	136	-0.07256129
-4.3076773	136.00	-0.07256129
-4.3076773	1362-JLN	-0.07256129
-4.3076773	DEVELOPMENT	-0.07256129
-4.3076773	137.15	-0.07256129
-4.3076773	139.62	-0.07256129
-4.3076773	1394	-0.07256129
-4.3076773	13:02:42	-0.07256129
-4.3076773	13:04	-0.07256129
-4.3076773	13:09:37	-0.07256129
-4.3076773	13:11:54	-0.07256129
-4.3076773	13:29:51	-0.07256129
-4.3076773	13:50:58	-0.07256129
-3.7110152	14	-0.10653483
-4.1253304	MANIS	-0.07256129
-2.9975767	4	-0.3111653
-3.1903584	TAMAN	-0.11927979
-4.1253304	SEGAR	-0.16982675
-4.1253304	56100	-0.07256129
-3.6205342	KL	-0.341761
-4.3076773	18:40	-0.07256129
-4.1253304	18:10	-0.07256129
-4.3076773	14-01-2018	-0.07256129
-3.981255	(SUN)	-0.07256129
-4.3076773	16:02	-0.07256129
-4.1253304	14-02-2018	-0.22807278
-4.3076773	14-03-18	-0.07256129
-4.3076773	21:49	-0.07256129
-4.3076773	SH03	-0.07256129
-4.3076773	ZJ20	-0.07256129
-4.3076773	14-06-2018	-0.07256129
-4.3076773	20:41:44	-0.07256129
-4.3076773	14-08-17	-0.07256129
-4.3076773	14-16-2018	-0.07256129
-4.3076773	14.00	-0.07256129
-4.3076773	14.00SR	-0.07256129
-4.3076773	14.01	-0.07256129
-4.3076773	14.04	-0.07256129
-4.3076773	14.06	-0.07256129
-4.1253304	14.10	-0.22807278
-4.3076773	14.15	-0.07256129
-4.3076773	14.18	-0.07256129
-4.1253304	14.20	-0.22807278
-4.3076773	14.22	-0.07256129
-4.3076773	14.30	-0.07256129
-4.3076773	14.31	-0.07256129
-4.3076773	14.35	-0.07256129
-4.3076773	14.38	-0.07256129
-4.3076773	14.40	-0.07256129
-4.3076773	14.50	-0.07256129
-4.3076773	14.53	-0.07256129
-4.3076773	14.60	-0.07256129
-4.3076773	14.64	-0.07256129
-4.3076773	14.65	-0.07256129
-4.3076773	14.73	-0.07256129
-4.3076773	14.79	-0.07256129
-4.3076773	14.80	-0.07256129
-4.3076773	14.81ZR	-0.07256129
-4.3076773	14.85SR	-0.07256129
-4.3076773	14.86	-0.07256129
-4.3076773	14.91	-0.07256129
-4.3076773	14.95	-0.07256129
-4.3076773	14.99SR	-0.07256129
-4.3076773	14/01/2018	-0.07256129
-4.3076773	12:06	-0.07256129
-4.3076773	13:51	-0.07256129
-4.1253304	14/03/2018	-0.07256129
-4.3076773	5:57:07PM	-0.07256129
-4.1253304	14/04/2018	-0.07256129
-4.1253304	16:14	-0.22807278
-4.3076773	140.00	-0.07256129
-4.3076773	141.50	-0.07256129
-4.3076773	142.00	-0.07256129
-4.3076773	1422-TMN	-0.07256129
-3.4818718	JAYA	-0.29629853
-4.3076773	1432	-0.07256129
-4.3076773	144.16	-0.07256129
-4.3076773	144.68	-0.07256129
-4.3076773	144.98	-0.07256129
-4.3076773	1452	-0.07256129
-4.3076773	14551/1582555	-0.07256129
-4.3076773	146.40	-0.07256129
-4.3076773	1462	-0.07256129
-4.3076773	147.17	-0.07256129
-4.3076773	1471	-0.07256129
-4.3076773	1476	-0.07256129
-4.3076773	148.00	-0.07256129
-4.3076773	148.40	-0.07256129
-4.3076773	148.50	-0.07256129
-4.3076773	148481-U	-0.07256129
-4.3076773	14:19:35	-0.07256129
-4.3076773	14:29:00	-0.07256129
-4.3076773	14:39:47	-0.07256129
-4.3076773	14:43:41	-0.07256129
-4.3076773	14:51	-0.07256129
-3.5456924	15	-0.21476488
-4.3076773	18:43	-0.07256129
-4.3076773	15*BAG	-0.07256129
-4.3076773	15-03-18	-0.07256129
-4.3076773	15:41	-0.07256129
-4.3076773	15-06-18	-0.07256129
-4.3076773	17:12	-0.07256129
-4.1253304	15-06-2018	-0.07256129
-4.3076773	15-07-18	-0.07256129
-3.981255	15.00	-0.1725443
-3.4818718	ZR	-0.35306758
-4.3076773	15.00SR	-0.07256129
-4.3076773	15.09	-0.07256129
-4.3076773	15.15	-0.07256129
-4.3076773	15.25	-0.07256129
-4.3076773	15.28	-0.07256129
-4.3076773	15.30	-0.07256129
-4.3076773	15.36	-0.07256129
-4.3076773	15.39	-0.07256129
-4.1253304	15.40	-0.22807278
-4.3076773	15.50	-0.07256129
-4.3076773	15.50SR	-0.07256129
-4.3076773	15.56SR	-0.07256129
-4.3076773	15.60	-0.07256129
-4.3076773	15.67	-0.07256129
-4.3076773	15.68	-0.07256129
-4.1253304	15.80	-0.22807278
-4.3076773	15.81	-0.07256129
-4.3076773	15.84	-0.07256129
-4.1253304	15.90	-0.22807278
-4.3076773	15.90SR	-0.07256129
-4.3076773	15.98	-0.07256129
-4.1253304	15/01/2018	-0.07256129
-4.3076773	1:48:36	-0.07256129
-4.3076773	15/04/18	-0.07256129
-4.3076773	15/05/2017	-0.07256129
-4.3076773	10:49:40	-0.07256129
-4.3076773	15/APR/2017	-0.07256129
-4.3076773	04:56:46	-0.07256129
-4.3076773	150.00	-0.07256129
-4.1253304	SVC	-0.07256129
-4.3076773	15000	-0.07256129
-4.3076773	KHEMISSET	-0.07256129
-4.3076773	1512	-0.07256129
-4.3076773	152.00	-0.07256129
-4.3076773	1521	-0.07256129
-4.3076773	153.35	-0.07256129
-4.3076773	153.50	-0.07256129
-4.3076773	154	-0.07256129
-4.3076773	AJINOMOTO	-0.07256129
-3.7110152	1KG	-0.19563296
-4.3076773	155.00	-0.07256129
-4.3076773	155.50	-0.07256129
-4.3076773	155.66	-0.07256129
-4.3076773	1558-TMN	-0.07256129
-3.8254461	PUSAT	-0.16982675
-4.3076773	156.00	-0.07256129
-4.3076773	158	-0.07256129
-4.3076773	1587	-0.07256129
-4.3076773	15894	-0.07256129
-4.3076773	159.00	-0.07256129
-4.1253304	15:23:00	-0.22807278
-4.1253304	15:46:09	-0.22807278
-4.3076773	15:57	-0.07256129
-4.3076773	15AMP	-0.07256129
-4.1253304	UMS	-0.07256129
-4.1253304	TOP	-0.07256129
-4.3076773	(SIRIM)	-0.07256129
-3.8254461	16	-0.10653483
-4.3076773	(500GM)	-0.07256129
-4.3076773	18:25	-0.07256129
-4.3076773	18:30	-0.07256129
-4.3076773	16-03-18	-0.07256129
-4.3076773	16-04-2018	-0.07256129
-4.3076773	16.00	-0.07256129
-4.3076773	16.30	-0.07256129
-4.3076773	16.40	-0.07256129
-4.3076773	16.42	-0.07256129
-4.3076773	16.50	-0.07256129
-4.3076773	16.50SR	-0.07256129
-4.3076773	16.60	-0.07256129
-4.3076773	16.68	-0.07256129
-4.3076773	16.71	-0.07256129
-4.3076773	16.79	-0.07256129
-4.3076773	16.80	-0.07256129
-4.3076773	16.85	-0.07256129
-4.3076773	16.90SR	-0.07256129
-4.3076773	16.95	-0.07256129
-4.3076773	16.96	-0.07256129
-4.3076773	16.98	-0.07256129
-4.3076773	16/04/2018	-0.07256129
-4.3076773	(MON)	-0.07256129
-4.3076773	16:28	-0.07256129
-4.3076773	16/06/2018	-0.07256129
-4.3076773	06:18:40	-0.07256129
-4.3076773	160.00	-0.07256129
-4.3076773	160160	-0.07256129
-4.3076773	1603029175	-0.07256129
-4.3076773	1604	-0.07256129
-4.3076773	1605-TMN	-0.07256129
-3.8254461	BINTANG	-0.07256129
-4.3076773	162.71	-0.07256129
-4.3076773	16200	-0.07256129
-4.3076773	PALEKBANG,	-0.07256129
-4.3076773	KELANTAN	-0.07256129
-4.3076773	1627	-0.07256129
-4.1253304	164.80	-0.22807278
-4.3076773	1643	-0.07256129
-4.3076773	165	-0.07256129
-4.3076773	165.00	-0.07256129
-4.3076773	1664	-0.07256129
-4.3076773	1665	-0.07256129
-4.3076773	167.19	-0.07256129
-4.3076773	168.00	-0.07256129
-4.3076773	169.00SR	-0.07256129
-4.3076773	169.08	-0.07256129
-4.3076773	169.60	-0.07256129
-4.3076773	16:26	-0.07256129
-4.3076773	16:32:00	-0.07256129
-4.3076773	16:52	-0.07256129
-4.3076773	16:57:00	-0.07256129
-4.3076773	16:58	-0.07256129
-4.3076773	16:59	-0.07256129
-4.1253304	16A,	-0.22807278
-4.3076773	ASTAKA	-0.07256129
-4.3076773	U8/83,	-0.07256129
-3.7110152	BUKIT	-0.07256129
-4.3076773	JELUTONG	-0.07256129
-3.981255	17	-0.14339326
-4.3076773	17-02-18	-0.07256129
-4.3076773	17-06-18	-0.07256129
-4.3076773	ZJ42	-0.07256129
-4.1253304	17-06-2018	-0.07256129
-4.3076773	17.00	-0.07256129
-4.3076773	17.00SR	-0.07256129
-4.3076773	17.04	-0.07256129
-4.3076773	17.20	-0.07256129
-4.3076773	17.22	-0.07256129
-4.3076773	17.32	-0.07256129
-4.3076773	17.40	-0.07256129
-4.1253304	17.45	-0.22807278
-4.3076773	17.49	-0.07256129
-4.3076773	17.50	-0.07256129
-4.3076773	17.60	-0.07256129
-4.3076773	17.70	-0.07256129
-4.3076773	17.74	-0.07256129
-4.3076773	17.75	-0.07256129
-4.3076773	17.80	-0.07256129
-4.3076773	17.83	-0.07256129
-4.3076773	17.89	-0.07256129
-4.3076773	17.93	-0.07256129
-4.1253304	17/01/2018	-0.07256129
-4.3076773	4:21:53	-0.07256129
-4.3076773	17/03/2017	-0.07256129
-4.3076773	21:35	-0.07256129
-4.1253304	17/04/2018	-0.22807278
-4.3076773	17/05/17	-0.07256129
-4.1253304	17/05/2018	-0.07256129
-4.1253304	17/06/2018	-0.07256129
-4.3076773	1700	-0.07256129
-4.3076773	17007	-0.07256129
-4.3076773	1701	-0.07256129
-4.3076773	171153	-0.07256129
-4.3076773	D/R	-0.07256129
-4.3076773	BUTTE	-0.07256129
-4.3076773	1720	-0.07256129
-4.3076773	1735	-0.07256129
-4.3076773	174.90	-0.07256129
-4.3076773	1755)	-0.07256129
-4.3076773	176	-0.07256129
-4.3076773	SUNGEI	-0.07256129
-4.3076773	BESI,	-0.07256129
-4.3076773	1762	-0.07256129
-4.3076773	177.20	-0.07256129
-4.3076773	177.22	-0.07256129
-4.3076773	178.08	-0.07256129
-4.3076773	178032	-0.07256129
-4.3076773	178104	-0.07256129
-4.3076773	179.00	-0.07256129
-4.3076773	179.50	-0.07256129
-4.3076773	1792	-0.07256129
-4.3076773	17:24:07	-0.07256129
-4.3076773	17:36	-0.07256129
-4.3076773	17:36:35	-0.07256129
-4.3076773	17:45	-0.07256129
-4.3076773	17MM	-0.07256129
-4.3076773	COMB	-0.07256129
-4.3076773	SPANNER	-0.07256129
-4.3076773	18:29	-0.07256129
-4.3076773	18-01-2018	-0.07256129
-4.3076773	15:44:46	-0.07256129
-4.3076773	18-03-18	-0.07256129
-4.3076773	15:12	-0.07256129
-4.3076773	18-10-17	-0.07256129
-4.3076773	15:16	-0.07256129
-4.3076773	ZT09	-0.07256129
-4.3076773	18.00	-0.07256129
-4.3076773	18.02	-0.07256129
-4.3076773	18.08	-0.07256129
-4.3076773	18.20	-0.07256129
-4.3076773	18.29SR	-0.07256129
-4.3076773	18.40	-0.07256129
-4.3076773	18.50SR	-0.07256129
-4.3076773	18.54	-0.07256129
-4.3076773	18.55	-0.07256129
-4.3076773	18.60SR	-0.07256129
-4.3076773	18.63	-0.07256129
-4.3076773	18.68	-0.07256129
-4.3076773	18.77	-0.07256129
-4.3076773	18.80	-0.07256129
-4.3076773	18.81	-0.07256129
-4.3076773	18.90SR	-0.07256129
-4.3076773	18/03/18	-0.07256129
-4.3076773	15:17	-0.07256129
-4.3076773	06051	-0.07256129
-4.3076773	18/04/2018	-0.07256129
-4.3076773	20:27	-0.07256129
-4.3076773	180.00	-0.07256129
-4.3076773	180.10	-0.07256129
-4.3076773	180048	-0.07256129
-4.3076773	180321142900_515592_BJC5691918+365	-0.07256129
-4.3076773	180503202400_74285_DHH2476558+014	-0.07256129
-4.3076773	181.98	-0.07256129
-4.3076773	1812	-0.07256129
-4.3076773	182.00	-0.07256129
-4.3076773	1821	-0.07256129
-4.1253304	SUGAR	-0.07256129
-4.3076773	CRACKERS	-0.07256129
-4.3076773	183	-0.07256129
-4.3076773	PLANTA	-0.07256129
-4.3076773	MARJERIN	-0.07256129
-4.3076773	240G	-0.07256129
-4.3076773	1840	-0.07256129
-4.3076773	184810	-0.07256129
-4.3076773	18:05	-0.07256129
-4.1253304	18:15	-0.22807278
-4.3076773	18:17	-0.07256129
-4.3076773	18:17:54	-0.07256129
-4.3076773	18:40:57	-0.07256129
-4.3076773	18:43:22	-0.07256129
-4.1253304	18:47	-0.07256129
-4.3076773	18:47:30	-0.07256129
-4.3076773	18:55:23	-0.07256129
-4.3076773	18@	-0.07256129
-3.981255	19	-0.07256129
-4.3076773	19,	-0.07256129
-4.3076773	KANCIL,	-0.07256129
-4.3076773	19-03-18	-0.07256129
-4.3076773	19-04-18	-0.07256129
-4.3076773	17:39	-0.07256129
-4.3076773	18:04	-0.07256129
-4.1253304	19-05-2018	-0.07256129
-4.3076773	19-09-17	-0.07256129
-4.3076773	15:39	-0.07256129
-4.3076773	ZJ03	-0.07256129
-4.3076773	19-1,	-0.07256129
-4.3076773	19.00	-0.07256129
-4.3076773	19.01	-0.07256129
-4.3076773	19.10	-0.07256129
-4.3076773	19.17	-0.07256129
-4.3076773	19.20	-0.07256129
-4.3076773	19.34	-0.07256129
-4.3076773	19.40	-0.07256129
-4.3076773	19.62	-0.07256129
-4.3076773	19.78	-0.07256129
-4.3076773	19.79	-0.07256129
-4.3076773	19.80	-0.07256129
-4.3076773	19.83	-0.07256129
-4.3076773	19.98	-0.07256129
-4.3076773	19.99	-0.07256129
-4.3076773	19/01/17	-0.07256129
-4.3076773	10:48	-0.07256129
-4.3076773	19/03/2018	-0.07256129
-4.3076773	1:01:43	-0.07256129
-4.3076773	19/05/16	-0.07256129
-4.3076773	12:01:43	-0.07256129
-4.3076773	12:01:50	-0.07256129
-4.3076773	19/05/18	-0.07256129
-4.3076773	19/06/17	-0.07256129
-4.3076773	19/10/2018	-0.07256129
-4.3076773	20:49:59	-0.07256129
-4.3076773	190.00	-0.07256129
-4.3076773	190.80	-0.07256129
-4.3076773	191.20	-0.07256129
-4.3076773	191.22	-0.07256129
-4.3076773	1921	-0.07256129
-4.3076773	193	-0.07256129
-4.1253304	CHEONG	-0.07256129
-3.981255	CHAN	-0.07256129
-3.7110152	SOS	-0.12827247
-4.3076773	KARAMEL	-0.07256129
-4.3076773	1943	-0.07256129
-4.3076773	195.28	-0.07256129
-4.3076773	1950	-0.07256129
-4.3076773	1971	-0.07256129
-4.3076773	1974	-0.07256129
-3.981255	GARBAGE	-0.16982675
-3.6205342	BAG	-0.10262606
-4.3076773	(GREEN)	-0.07256129
-4.3076773	74	-0.07256129
-4.3076773	199258579655	-0.07256129
-4.3076773	199977	-0.07256129
-4.3076773	19:32:35	-0.07256129
-4.3076773	19:46:00	-0.07256129
-4.3076773	19:53:23	-0.07256129
-4.3076773	1:29	-0.07256129
-4.3076773	1:45	-0.07256129
-4.3076773	1A/4B,	-0.07256129
-4.3076773	1,ARA	-0.07256129
-3.8254461	DAMANSARA,	-0.2327446
-4.3076773	1LT	-0.07256129
-4.1253304	BIG	-0.07256129
-4.3076773	TREE	-0.07256129
-4.3076773	HIGH	-0.07256129
-4.3076773	GLOSS	-0.07256129
-4.3076773	1UNIT*	-0.07256129
-4.3076773	1X	-0.07256129
-4.3076773	000000118927	-0.07256129
-4.3076773	000000381000	-0.07256129
-4.3076773	000000381093	-0.07256129
-4.3076773	000000417969	-0.07256129
-4.3076773	000000418218	-0.07256129
-4.3076773	000000418294	-0.07256129
-4.3076773	000000517515	-0.07256129
-4.3076773	000000532075	-0.07256129
-4.3076773	000000616775	-0.07256129
-4.3076773	000000810692	-0.07256129
-4.3076773	000000811101	-0.07256129
-4.3076773	000000820868	-0.07256129
-4.3076773	000001048211	-0.07256129
-4.3076773	000001058621	-0.07256129
-4.3076773	000001082678	-0.07256129
-4.3076773	000001397686	-0.07256129
-4.3076773	000001427416	-0.07256129
-4.3076773	000001501083	-0.07256129
-4.3076773	000001888854	-0.07256129
-4.3076773	000002003191	-0.07256129
-4.3076773	000002009131	-0.07256129
-4.3076773	000002336695	-0.07256129
-4.3076773	000002781709	-0.07256129
-4.3076773	000002926759	-0.07256129
-4.3076773	000003384541	-0.07256129
-4.3076773	000003596418	-0.07256129
-4.3076773	000003767016	-0.07256129
-4.3076773	000004089728	-0.07256129
-4.3076773	000004291008	-0.07256129
-4.3076773	000004497295	-0.07256129
-4.3076773	000004921851	-0.07256129
-4.3076773	000005043675	-0.07256129
-4.3076773	000005270385	-0.07256129
-4.3076773	000006142384	-0.07256129
-4.3076773	000006420611	-0.07256129
-4.3076773	000006731878	-0.07256129
-4.3076773	000007570247	-0.07256129
-4.3076773	000007572029	-0.07256129
-4.3076773	000007787980	-0.07256129
-4.3076773	000007940774	-0.07256129
-4.3076773	000007996511	-0.07256129
-4.3076773	000008202802	-0.07256129
-4.3076773	000008541987	-0.07256129
-4.3076773	000008612854	-0.07256129
-4.1253304	7.80	-0.16982675
-4.3076773	1X1.00	-0.07256129
-4.3076773	1X1.80	-0.07256129
-4.3076773	1X7.00	-0.07256129
-2.9259765	2	-0.31817502
-4.1253304	TOWEL	-0.07256129
-4.3076773	COUNTER1	-0.07256129
-4.3076773	COUNTERI	-0.07256129
-4.1253304	MCD	-0.07256129
-4.3076773	AGSPI	-0.07256129
-4.3076773	NORMAL	-0.07256129
-3.981255	KEY	-0.07256129
-4.1253304	LONG	-0.07256129
-4.3076773	269.00	-0.07256129
-3.981255	4.90	-0.30265346
-4.1253304	6.90	-0.22807278
-4.3076773	R03	-0.07256129
-4.3076773	N'LEMAK+FC	-0.07256129
-4.3076773	@17.83	-0.07256129
-3.981255	SMALL	-0.16982675
-4.3076773	SUNDAECHOC	-0.07256129
-3.6205342	TIGER	-0.11847674
-4.3076773	BUCKET-	-0.07256129
-3.981255	HH	-0.07256131
-4.3076773	VM	-0.07256129
-4.3076773	11.69	-0.07256129
-4.3076773	2.9000	-0.07256129
-4.1253304	43.00	-0.22807278
-3.981255	5.30	-0.30265346
-4.3076773	5.51	-0.07256129
-4.3076773	1.53)	-0.07256129
-4.3076773	2)0253K	-0.07256129
-4.3076773	AMOXICAP	-0.07256129
-4.3076773	500MG	-0.07256129
-4.3076773	CAPSU	-0.07256129
-4.3076773	2,197.00	-0.07256129
-4.3076773	2,305.80	-0.07256129
-4.3076773	2.	-0.07256131
-4.3076773	2000-0002	-0.07256129
-4.3076773	2012-0042	-0.07256129
-4.3076773	2020-0231	-0.07256129
-4.3076773	5002-0004	-0.07256129
-4.3076773	9100-0007	-0.07256129
-3.7110152	EXCHANGE	-0.15905954
-3.3326547	IS	-0.18964835
-4.3076773	DONE	-0.07256129
-3.4818718	7	-0.2555099
-3.8254461	DAYS	-0.18577507
-3.981255	GOOD	-0.07256129
-4.3076773	CONDITION	-0.07256129
-4.3076773	IT'S	-0.07256129
-4.3076773	PAKCING	-0.07256129
-3.6205342	OUR	-0.07256129
-3.8254461	PRODUCTS	-0.07256129
-4.3076773	CONTAIN	-0.07256129
-4.3076773	ADDED	-0.07256129
-4.1253304	THINNER	-0.07256129
-4.1253304	GALLON	-0.22807278
-4.1253304	2.0	-0.22807278
-4.3076773	2.00	-0.07256131
-3.981255	6.00	-0.16982675
-4.1253304	68.00	-0.22807278
-4.3076773	2.00SR	-0.07256129
-4.3076773	2.02	-0.07256129
-4.3076773	2.03	-0.07256129
-4.3076773	2.04	-0.07256129
-4.3076773	2.07-	-0.07256129
-4.3076773	2.08	-0.07256129
-4.3076773	2.09	-0.07256129
-4.1253304	2.10	-0.14339326
-4.3076773	2.12	-0.07256129
-4.3076773	2.13	-0.07256129
-4.3076773	2.14	-0.07256129
-4.3076773	2.15	-0.07256129
-4.3076773	2.17	-0.07256129
-4.3076773	2.170	-0.07256129
-3.8254461	2.20	-0.3296546
-4.3076773	2.200	-0.07256129
-4.3076773	2.2012-0011	-0.07256129
-4.3076773	2.24	-0.07256129
-4.3076773	2.25	-0.07256129
-4.3076773	2.26	-0.07256129
-4.3076773	2.27	-0.07256129
-4.3076773	2.28	-0.07256129
-4.3076773	2.33	-0.07256129
-4.3076773	2.34	-0.07256129
-4.3076773	2.35	-0.07256129
-4.3076773	2.36	-0.07256129
-4.3076773	2.37	-0.07256129
-4.3076773	2.40	-0.07256129
-4.3076773	2.42	-0.07256129
-4.3076773	2.44	-0.07256129
-4.1253304	2.45	-0.22807278
-4.3076773	2.450	-0.07256129
-4.3076773	2.47	-0.07256129
-4.3076773	2.48	-0.07256129
-4.3076773	2.5	-0.07256129
-4.3076773	2.50*3	-0.07256129
-4.3076773	2.50S	-0.07256129
-4.3076773	2.50SR	-0.07256129
-4.3076773	2.50ZR	-0.07256129
-4.3076773	2.53	-0.07256129
-4.3076773	2.55	-0.07256129
-4.3076773	2.56	-0.07256129
-4.3076773	2.570	-0.07256129
-4.3076773	2.590	-0.07256129
-4.3076773	2.60	-0.07256129
-4.1253304	2.65	-0.16982675
-4.3076773	2.66	-0.07256129
-4.1253304	2.72	-0.22807278
-4.3076773	2.73	-0.07256129
-4.3076773	2.74	-0.07256129
-4.3076773	2.77	-0.07256129
-4.3076773	2.78	-0.07256129
-3.8254461	2.80	-0.4275922
-4.3076773	2.86	-0.07256129
-4.3076773	2.87	-0.07256129
-4.1253304	2.88	-0.22807278
-4.3076773	2.91)	-0.07256129
-3.2924776	=	-0.23813021
-4.3076773	2.94	-0.07256129
-4.3076773	2.96	-0.07256129
-4.3076773	2.97	-0.07256129
-4.3076773	2/16	-0.07256129
-3.5456924	SEKSYEN	-0.11847674
-4.3076773	2/24	-0.07256129
-4.3076773	20"	-0.07256129
-4.3076773	1.6KG	-0.07256129
-4.3076773	500MM	-0.07256129
-3.981255	20.00	-0.14339326
-4.3076773	20.00-	-0.07256129
-4.3076773	20.05	-0.07256129
-4.1253304	20.10	-0.22807278
-4.3076773	20.19	-0.07256129
-4.1253304	20.20	-0.22807278
-4.3076773	20.21	-0.07256129
-4.3076773	20.38	-0.07256129
-4.3076773	20.46	-0.07256129
-4.3076773	20.50	-0.07256129
-4.3076773	20.65	-0.07256129
-4.3076773	20.67	-0.07256129
-4.3076773	20.70	-0.07256129
-4.3076773	20.75	-0.07256129
-4.3076773	20.80	-0.07256129
-4.3076773	20.90	-0.07256129
-3.981255	20/03/2018	-0.07256129
-4.3076773	13:01	-0.07256129
-4.3076773	7:07PM	-0.07256129
-4.3076773	RCPT	-0.07256129
-4.3076773	NO.18252	-0.07256129
-3.981255	20/04/2018	-0.07256129
-4.3076773	20:48	-0.07256129
-4.3076773	20/06/18	-0.07256129
-4.3076773	00:05	-0.07256129
-4.3076773	90554	-0.07256129
-4.3076773	4145	-0.07256129
-4.1253304	z1	-0.22807278
-4.3076773	18:07:10	-0.07256129
-4.3076773	200.00	-0.07256129
-4.3076773	2000000430096	-0.07256129
-4.3076773	2000001592021	-0.07256129
-4.3076773	2003	-0.07256129
-4.1253304	CLOSED	-0.07256131
-4.3076773	09:08:37	-0.07256129
-3.7110152	24	-0.2097524
-4.3076773	09:58:26	-0.07256129
-4.3076773	SAI	-0.07256129
-4.3076773	FUL	-0.07256129
-4.3076773	SAIFUL	-0.07256129
-4.3076773	2006031014359	-0.07256129
-4.3076773	2007	-0.07256129
-4.3076773	201019	-0.07256129
-4.1253304	KAYA	-0.07256129
-4.1253304	PUFF	-0.22807278
-4.3076773	201026	-0.07256129
-4.3076773	SCONE	-0.07256129
-4.3076773	2017-12-28	-0.07256129
-4.3076773	22:17PM	-0.07256129
-4.3076773	2018-04-06	-0.07256129
-4.3076773	2018032251310415556	-0.07256129
-4.3076773	202	-0.07256129
-4.3076773	2021-HOUSE	-0.07256129
-4.3076773	SPECIALTY	-0.07256129
-3.981255	HOT	-0.07256129
-4.3076773	2022	-0.07256129
-4.3076773	CADBURY	-0.07256129
-3.6205342	CHOCOLATE	-0.11847674
-4.3076773	DAIL	-0.07256129
-4.1253304	205	-0.07256129
-4.3076773	&SOUR	-0.07256129
-4.3076773	RIBS	-0.07256129
-4.3076773	208	-0.07256129
-4.1253304	YAM	-0.22807278
-3.7110152	FRESH	-0.16982675
-4.3076773	SIGNATURE-C	-0.07256129
-4.3076773	20980	-0.07256129
-4.3076773	20:01:23	-0.07256129
-4.3076773	20:29:59	-0.07256129
-4.3076773	20:56	-0.07256129
-4.3076773	20:56:06	-0.07256129
-4.3076773	17:59	-0.07256129
-4.1253304	21-03-2018	-0.16982675
-4.3076773	21-05-17	-0.07256129
-4.3076773	21-11-16	-0.07256129
-4.1253304	21.00	-0.22807278
-4.3076773	21.09	-0.07256129
-4.3076773	21.10SR	-0.07256129
-4.3076773	21.18	-0.07256129
-4.3076773	21.20	-0.07256129
-4.3076773	21.30	-0.07256129
-4.3076773	21.40	-0.07256129
-4.3076773	21.43	-0.07256129
-4.3076773	21.50	-0.07256129
-4.3076773	21.60	-0.07256129
-4.3076773	21.70	-0.07256129
-4.1253304	21.80	-0.22807278
-4.3076773	21.83	-0.07256129
-4.3076773	21.84	-0.07256129
-4.3076773	21.85	-0.07256129
-4.3076773	21.90	-0.07256129
-4.3076773	21.96	-0.07256129
-4.3076773	21/01/2018	-0.07256129
-4.3076773	21/02/18	-0.07256129
-4.1253304	21/03/2018	-0.16982675
-4.3076773	09:13:31	-0.07256129
-4.3076773	21/05/2018TIME:	-0.07256129
-4.3076773	21/09/2017	-0.07256129
-4.3076773	10:20:37	-0.07256129
-4.3076773	2101	-0.07256129
-4.1253304	CARLSBERG	-0.07256129
-4.3076773	SMOOTH	-0.07256129
-4.3076773	DRAUG	-0.07256129
-4.3076773	213.00	-0.07256129
-4.3076773	21434	-0.07256129
-4.1253304	WS	-0.07256129
-4.3076773	BABY	-0.07256129
-4.3076773	WIPES	-0.07256129
-4.3076773	FRAG	-0.07256129
-4.3076773	215	-0.07256129
-4.3076773	216,	-0.07256129
-4.3076773	MACALISTER	-0.07256129
-4.1253304	ROAD,	-0.07256129
-4.3076773	2167	-0.07256129
-4.3076773	216_01/21047	-0.07256129
-4.3076773	217	-0.07256129
-4.3076773	STUFF	-0.07256129
-4.1253304	MEAT	-0.07256129
-3.7110152	TAU	-0.12827247
-4.3076773	FU	-0.07256129
-4.1253304	HU	-0.07256129
-4.3076773	THIT	-0.07256129
-3.981255	CHI	-0.07256129
-4.3076773	217.00	-0.07256129
-4.3076773	2174	-0.07256129
-4.3076773	A&W	-0.07256129
-4.3076773	SARSAPARILLA	-0.07256129
-3.981255	1.5L	-0.30265346
-4.3076773	21:08:20	-0.07256129
-4.3076773	21:09:20	-0.07256129
-4.3076773	21:16:12	-0.07256129
-4.3076773	21:17:14	-0.07256129
-4.3076773	21:22:27	-0.07256129
-4.3076773	21:29:23	-0.07256129
-3.981255	22	-0.11161263
-4.3076773	18:07	-0.07256129
-4.3076773	LRG	-0.07256129
-4.3076773	PERUSAHAAN	-0.07256129
-4.3076773	18:51	-0.07256129
-4.3076773	22-04-16	-0.07256129
-4.3076773	12:01	-0.07256129
-4.3076773	13:13	-0.07256129
-4.1253304	22-05-2018	-0.07256129
-4.3076773	22-06-2017	-0.07256129
-4.3076773	22.00	-0.07256129
-4.3076773	22.25	-0.07256129
-4.3076773	22.26	-0.07256129
-4.3076773	22.40	-0.07256129
-4.3076773	22.50	-0.07256129
-4.3076773	22.60	-0.07256129
-4.3076773	22.64	-0.07256129
-4.3076773	22.65	-0.07256129
-4.3076773	22.73	-0.07256129
-4.3076773	PUMP	-0.07256129
-4.3076773	06	-0.07256129
-4.3076773	22.80	-0.07256129
-4.3076773	22.89	-0.07256129
-4.3076773	(13%=	-0.07256129
-4.3076773	22.91	-0.07256129
-4.3076773	22.99	-0.07256129
-4.3076773	22/01/2017	-0.07256129
-4.3076773	09:09:16	-0.07256129
-4.1253304	22/03/2018	-0.07256129
-4.3076773	10:18	-0.07256129
-4.3076773	22/04/2018	-0.07256129
-4.3076773	19:26	-0.07256129
-4.3076773	19:29	-0.07256129
-4.1253304	22/12/2017	-0.07256129
-4.3076773	14:03	-0.07256129
-4.3076773	2200056	-0.07256129
-4.3076773	220Z	-0.07256129
-4.3076773	2216	-0.07256129
-4.3076773	NUTELLA	-0.07256129
-4.3076773	FERRERO	-0.07256129
-4.3076773	HAZELN	-0.07256129
-4.3076773	22241	-0.07256129
-4.1253304	CUT	-0.07256129
-4.3076773	SCUSSORS	-0.07256129
-4.3076773	2225	-0.07256129
-4.3076773	2226	-0.07256129
-4.3076773	223894	-0.07256129
-4.3076773	224	-0.07256129
-4.3076773	2247	-0.07256129
-4.3076773	2267	-0.07256129
-4.3076773	COLGATE	-0.07256129
-4.1253304	GREAT	-0.07256129
-4.1253304	REGULAR	-0.07256129
-4.3076773	22:39:39	-0.07256129
-4.3076773	22A-1,	-0.07256129
-4.3076773	17/54,	-0.07256129
-4.3076773	23	-0.07256129
-4.3076773	ANIS	-0.07256129
-4.3076773	23,	-0.07256129
-4.1253304	JIN	-0.07256129
-4.1253304	BURUNG	-0.07256129
-4.3076773	JENTAYU,	-0.07256129
-3.5456924	TMN	-0.07256129
-4.3076773	23-01-2019	-0.07256129
-4.3076773	13:14:15	-0.07256129
-3.8254461	PRINT	-0.07256129
-3.6205342	BY:	-0.10653483
-4.3076773	ROOT	-0.07256129
-4.3076773	23-03-18	-0.07256129
-4.3076773	18:09	-0.07256129
-4.3076773	23-04-2017	-0.07256129
-4.1253304	23-06-2018	-0.07256129
-4.1253304	23.00	-0.16982675
-4.3076773	23.15	-0.07256129
-4.3076773	23.20	-0.07256129
-4.3076773	23.22	-0.07256129
-4.3076773	23.26	-0.07256129
-4.3076773	23.27	-0.07256129
-4.3076773	23.32	-0.07256129
-4.3076773	23.40	-0.07256129
-4.3076773	23.44	-0.07256129
-4.3076773	23.48	-0.07256129
-4.3076773	23.50	-0.07256129
-4.3076773	23.56	-0.07256129
-4.3076773	23.58	-0.07256129
-4.3076773	23.60	-0.07256129
-4.3076773	23.63	-0.07256129
-4.3076773	23.64	-0.07256129
-4.3076773	23.83	-0.07256129
-4.3076773	23/03/2018	-0.07256129
-4.3076773	19:08:32	-0.07256129
-4.3076773	3:13:19	-0.07256129
-4.3076773	9:34:40	-0.07256129
-4.3076773	230	-0.07256129
-4.3076773	2300000017984	-0.07256129
-4.3076773	2312475009906	-0.07256129
-4.3076773	234.00	-0.07256129
-4.3076773	234.40	-0.07256129
-4.3076773	235.85	-0.07256129
-4.3076773	238	-0.07256129
-4.3076773	2394	-0.07256129
-4.3076773	MISTER	-0.07256129
-4.3076773	POTATO	-0.07256129
-4.3076773	CHIPS	-0.07256129
-4.3076773	BB	-0.07256129
-4.3076773	23:02:16	-0.07256129
-4.3076773	23:12:13	-0.07256129
-4.3076773	23:50:00	-0.07256129
-4.3076773	09:12:41	-0.07256129
-3.8254461	28	-0.07256131
-4.3076773	(75HT)	-0.07256129
-3.4818718	RED	-0.14530925
-4.3076773	X36	-0.07256129
-4.3076773	(2KG)	-0.07256129
-4.3076773	24"X18"	-0.07256129
-4.3076773	ROLLERPAINT	-0.07256129
-3.8254461	HANDLE	-0.4275922
-4.3076773	24-01-16	-0.07256129
-4.3076773	24-01-18	-0.07256129
-4.3076773	24-03-18	-0.07256129
-4.3076773	24-03-2018	-0.07256129
-4.3076773	22:02:55	-0.07256129
-4.3076773	24-11-17	-0.07256129
-4.3076773	13:11	-0.07256129
-4.3076773	24-MAR-2018	-0.07256129
-4.3076773	03:44:22	-0.07256129
-4.3076773	24.00	-0.07256129
-4.3076773	24.15	-0.07256129
-4.3076773	24.16	-0.07256129
-4.3076773	24.30	-0.07256129
-4.3076773	24.38	-0.07256129
-4.1253304	24.40	-0.22807278
-4.3076773	24.63	-0.07256129
-4.3076773	24.83	-0.07256129
-4.3076773	24.95	-0.07256129
-4.3076773	24/01/18	-0.07256129
-4.3076773	240	-0.07256129
-4.3076773	2411662040	-0.07256129
-4.3076773	2430	-0.07256129
-4.3076773	24409	-0.07256129
-4.3076773	247.55	-0.07256129
-4.3076773	247.64	-0.07256129
-4.3076773	248.04	-0.07256129
-4.3076773	248.05	-0.07256129
-4.3076773	249336-T	-0.07256129
-4.3076773	24MMX7Y	-0.07256129
-4.3076773	M.ONE	-0.07256129
-3.6205342	25	-0.1725443
-4.3076773	25-01-16	-0.07256129
-4.3076773	25-03-18	-0.07256129
-4.1253304	SHO1	-0.22807278
-4.3076773	25-04-18	-0.07256129
-4.3076773	25-06-18	-0.07256129
-4.3076773	11:25	-0.07256129
-4.3076773	25.00	-0.07256129
-4.3076773	25.10	-0.07256129
-4.3076773	25.15	-0.07256129
-4.3076773	25.30	-0.07256129
-4.3076773	25.32	-0.07256129
-4.3076773	25.40	-0.07256129
-4.3076773	25.44	-0.07256129
-4.3076773	25.50	-0.07256129
-4.3076773	25.56	-0.07256129
-4.3076773	25.60	-0.07256129
-4.3076773	25.74	-0.07256129
-4.3076773	25.80	-0.07256129
-4.3076773	25.85	-0.07256129
-4.3076773	25/01/2018	-0.07256129
-4.3076773	1:22:56PM	-0.07256129
-4.1253304	25/06/18	-0.16982675
-4.3076773	11:03	-0.07256129
-3.981255	25/09/2017	-0.16982675
-4.3076773	01:48:57	-0.07256129
-4.3076773	25/12/2018	-0.07256129
-4.3076773	8:13:39	-0.07256129
-4.3076773	25/FEB/2017	-0.07256129
-4.3076773	07:43:54	-0.07256129
-4.1253304	250.00	-0.22807278
-4.3076773	2502	-0.07256129
-3.981255	ZERO	-0.14339326
-4.3076773	1.25L	-0.07256129
-4.3076773	STOP	-0.07256129
-4.3076773	25032018	-0.07256129
-4.3076773	2506	-0.07256129
-3.981255	YONGCHUN	-0.30265346
-4.3076773	LOKAM	-0.07256129
-4.3076773	MNDRN	-0.07256129
-4.3076773	2508	-0.07256129
-4.3076773	252.00	-0.07256129
-4.3076773	254.72	-0.07256129
-4.3076773	2547	-0.07256129
-4.3076773	255.00	-0.07256129
-4.3076773	2564	-0.07256129
-4.3076773	2567	-0.07256129
-4.3076773	2585	-0.07256129
-4.3076773	259.90	-0.07256129
-4.3076773	25KG	-0.07256129
-4.3076773	SIKA	-0.07256129
-4.3076773	CREAM-88	-0.07256129
-4.3076773	GI	-0.07256129
-4.3076773	NIPPLE	-0.07256129
-4.3076773	26	-0.07256129
-3.981255	33	-0.07256129
-4.3076773	(85HT)	-0.07256129
-4.3076773	26-03-18	-0.07256129
-4.3076773	15:25	-0.07256129
-4.3076773	26.00	-0.07256129
-4.1253304	26.10	-0.22807278
-4.3076773	26.11	-0.07256129
-4.3076773	26.12	-0.07256129
-4.3076773	26.33	-0.07256129
-4.3076773	26.34	-0.07256129
-4.3076773	26.40	-0.07256129
-4.3076773	26.42	-0.07256129
-4.3076773	26.50	-0.07256129
-4.3076773	26.60	-0.07256129
-4.3076773	26.61	-0.07256129
-4.3076773	26.70SR	-0.07256129
-4.3076773	26.79	-0.07256129
-4.3076773	26.80	-0.07256129
-4.3076773	26.82	-0.07256129
-4.3076773	26.99	-0.07256129
-4.3076773	26/02/18	-0.07256129
-4.1253304	26/05/2018	-0.07256129
-4.3076773	8:53:37	-0.07256129
-4.3076773	26/06/18	-0.07256129
-4.3076773	22:40	-0.07256129
-4.3076773	45107	-0.07256129
-4.3076773	9577	-0.07256129
-4.3076773	260.10	-0.07256129
-4.3076773	261	-0.07256129
-4.3076773	HELANG	-0.07256129
-4.1253304	5KG	-0.22807278
-4.3076773	261.32	-0.07256129
-4.3076773	262.35	-0.07256129
-4.3076773	2623	-0.07256129
-4.3076773	265	-0.07256129
-3.6205342	LEE	-0.07256129
-4.1253304	KUM	-0.07256129
-3.981255	KEE	-0.07256129
-4.3076773	TIRAM	-0.07256129
-4.1253304	2651	-0.07256129
-4.3076773	MUNCHYS	-0.07256129
-4.1253304	CRACKER	-0.07256129
-4.1253304	SANDWI	-0.22807278
-4.3076773	2686	-0.07256129
-4.3076773	269250	-0.07256129
-4.3076773	18:46	-0.07256129
-4.3076773	27"	-0.07256129
-4.3076773	T.S	-0.07256129
-4.1253304	BASIN	-0.07256129
-3.981255	BESAR	-0.07256129
-4.3076773	27,	-0.07256129
-3.981255	SULTAN	-0.07256129
-4.3076773	ISMAIL,	-0.07256129
-4.3076773	27,JALAN	-0.07256129
-4.1253304	DEDAP	-0.07256129
-4.3076773	27-04-18	-0.07256129
-4.3076773	16:40	-0.07256129
-4.1253304	27.00	-0.16982675
-4.3076773	27.09	-0.07256129
-4.3076773	27.10	-0.07256129
-4.3076773	27.20	-0.07256129
-4.1253304	27.25	-0.22807278
-4.1253304	27.27	-0.22807278
-4.3076773	27.28	-0.07256129
-4.3076773	27.30	-0.07256129
-4.3076773	27.36	-0.07256129
-4.3076773	27.38	-0.07256129
-4.3076773	27.44	-0.07256129
-4.3076773	27.45	-0.07256129
-4.3076773	27.48	-0.07256129
-4.3076773	27.55	-0.07256129
-4.3076773	27.60	-0.07256129
-4.1253304	60.60	-0.22807278
-4.3076773	27.68	-0.07256129
-4.3076773	27.90	-0.07256129
-4.3076773	27.95	-0.07256129
-4.3076773	27.98	-0.07256129
-4.3076773	27/02/18	-0.07256129
-4.3076773	21:22	-0.07256129
-4.3076773	27/03/2018	-0.07256129
-4.3076773	16:34	-0.07256129
-4.3076773	16:54:04	-0.07256129
-4.1253304	27/05/2018	-0.07256129
-4.3076773	13:48	-0.07256129
-3.981255	27/06/18	-0.14339326
-4.3076773	09:49	-0.07256129
-4.3076773	10:08	-0.07256129
-4.3076773	27/06/2018	-0.07256129
-4.3076773	270.00	-0.07256129
-4.3076773	270.30	-0.07256129
-4.3076773	2748	-0.07256129
-4.3076773	274961/000000	-0.07256129
-4.3076773	275.90	-0.07256129
-4.3076773	277.00	-0.07256129
-4.3076773	27736	-0.07256129
-4.3076773	27755	-0.07256129
-4.3076773	277ML	-0.07256129
-4.3076773	WD	-0.07256129
-3.8254461	40	-0.14339326
-4.3076773	ANTI-RUST	-0.07256129
-4.3076773	LUBRICANT	-0.07256129
-4.3076773	2786	-0.07256129
-4.3076773	27932	-0.07256129
-4.3076773	18:32:36	-0.07256129
-4.3076773	28-03-18	-0.07256129
-4.3076773	28-04-18	-0.07256129
-4.1253304	28-04-2018	-0.07256129
-4.3076773	28-05-18	-0.07256129
-4.3076773	17:00	-0.07256129
-4.1253304	28-05-2018	-0.07256129
-4.3076773	28-11-18	-0.07256129
-4.3076773	28-12-17	-0.07256129
-4.3076773	18:52	-0.07256129
-4.3076773	28.11	-0.07256129
-4.3076773	28.15	-0.07256129
-4.3076773	28.20	-0.07256129
-4.3076773	28.30	-0.07256129
-4.3076773	28.31	-0.07256129
-4.3076773	28.32	-0.07256129
-4.3076773	28.40	-0.07256129
-4.3076773	28.49	-0.07256129
-4.3076773	28.50	-0.07256129
-4.3076773	28.58	-0.07256129
-4.3076773	28.70	-0.07256129
-4.3076773	28.80	-0.07256129
-4.3076773	28.90	-0.07256129
-4.1253304	28/02/2018	-0.07256129
-4.3076773	20:11	-0.07256129
-4.3076773	28/03/2018	-0.07256129
-4.3076773	28/04/2018	-0.07256129
-4.3076773	15:35	-0.07256129
-4.3076773	28/05/18	-0.07256129
-4.3076773	11:41	-0.07256129
-4.3076773	28/06/2018	-0.07256129
-4.3076773	3:11:35	-0.07256129
-4.1253304	28/12/2017	-0.22807278
-4.3076773	2838	-0.07256129
-4.3076773	MANDARI	-0.07256129
-4.3076773	28700	-0.07256129
-3.981255	BENTONG	-0.30265346
-4.1253304	29	-0.07256129
-4.3076773	29-01-18	-0.07256129
-4.3076773	20:38	-0.07256129
-4.1253304	29-10-2017	-0.07256129
-4.3076773	29-12-2017	-0.07256129
-4.3076773	29.00	-0.07256129
-4.3076773	29.24	-0.07256129
-4.3076773	29.28	-0.07256129
-4.3076773	29.33	-0.07256129
-4.3076773	29.59	-0.07256129
-4.3076773	29.68	-0.07256129
-4.3076773	29.69	-0.07256129
-4.1253304	29.70	-0.22807278
-4.3076773	29.80	-0.07256129
-4.3076773	29.81	-0.07256129
-4.3076773	29.95	-0.07256129
-4.3076773	29/06/2018	-0.07256129
-4.3076773	8:26:57	-0.07256129
-4.3076773	29/11/2017	-0.07256129
-4.3076773	2901060611145	-0.07256129
-4.3076773	2901060611206	-0.07256129
-4.3076773	2901060611213	-0.07256129
-4.3076773	292.56	-0.07256129
-4.3076773	2928MIX	-0.07256129
-4.3076773	295.00	-0.07256129
-4.3076773	29721	-0.07256129
-4.3076773	2:08:44	-0.07256129
-4.3076773	2:26	-0.07256129
-4.3076773	2KGS.	-0.07256129
-4.3076773	WOOD	-0.07256129
-4.3076773	LACQUER	-0.07256129
-4.1253304	2ND	-0.22807278
-3.7110152	FLOOR,	-0.17943178
-4.3076773	WISMA	-0.07256129
-4.3076773	COSWAY,	-0.07256129
-4.3076773	RAJA	-0.07256129
-4.3076773	CHULAN,	-0.07256129
-4.3076773	2P2C-R-2	-0.07256129
-4.3076773	2PC	-0.07256129
-4.3076773	1.15	-0.07256129
-4.1253304	3.50	-0.12827247
-4.3076773	2PETI	-0.07256129
-4.3076773	2X	-0.07256131
-4.3076773	26.5000	-0.07256129
-4.1253304	6.88	-0.22807278
-4.3076773	2X11.80	-0.07256129
-4.3076773	2X40W	-0.07256129
-4.3076773	F/FITTING	-0.07256129
-4.3076773	(EMPTY)-ITK	-0.07256129
-4.3076773	@14.00	-0.07256129
-4.3076773	2X8.80	-0.07256129
-3.2924776	5	-0.23477861
-3.7110152	9	-0.23949108
-3.8254461	DAY	-0.12827247
-3.2924776	WITH	-0.12133498
-4.3076773	RECEIPT.	-0.07256129
-3.5456924	AEON	-0.16507103
-4.1253304	MALURI	-0.07256129
-4.1253304	SC	-0.07256129
-4.3076773	SIO	-0.07256129
-4.3076773	90.00	-0.07256129
-4.1253304	4.50	-0.16982675
-4.3076773	3)9557892201011	-0.07256129
-4.3076773	NOFLUX	-0.07256129
-4.3076773	TAB	-0.07256129
-4.3076773	90MG	-0.07256129
-4.3076773	3,336.00	-0.07256129
-4.3076773	3-1707067	-0.07256129
-4.3076773	3-1708032	-0.07256129
-4.3076773	3-7,	-0.07256129
-3.4262395	GROUND	-0.5265409
-4.3076773	3.	-0.07256129
-3.981255	FEEDBACK	-0.07256131
-4.3076773	FEEDBACK,	-0.07256129
-3.981255	3.00	-0.19563296
-4.3076773	3.00SR	-0.07256129
-4.3076773	3.01	-0.07256129
-4.3076773	3.02	-0.07256129
-4.3076773	3.03	-0.07256129
-4.3076773	3.05	-0.07256129
-4.3076773	3.05*1	-0.07256129
-4.3076773	3.06	-0.07256129
-4.3076773	3.08	-0.07256129
-4.3076773	3.10	-0.07256129
-4.3076773	3.11	-0.07256129
-4.3076773	3.12	-0.07256129
-4.3076773	3.12S	-0.07256129
-4.3076773	3.15	-0.07256129
-4.3076773	3.18	-0.07256129
-4.3076773	3.1800	-0.07256129
-4.1253304	3.20	-0.22807278
-4.3076773	3.21	-0.07256129
-4.3076773	3.27	-0.07256129
-4.3076773	3.36	-0.07256129
-4.3076773	3.40	-0.07256129
-4.3076773	3.45	-0.07256129
-4.3076773	3.49	-0.07256129
-4.3076773	3.5"X6"	-0.07256129
-4.3076773	3.50*2	-0.07256129
-4.3076773	3.51	-0.07256129
-4.3076773	3.55	-0.07256129
-4.3076773	3.5MM	-0.07256129
-4.3076773	3.60	-0.07256129
-4.3076773	3.60S	-0.07256129
-4.3076773	3.68	-0.07256129
-4.3076773	3.70	-0.07256129
-4.3076773	3.71	-0.07256129
-4.1253304	3.72	-0.22807278
-4.3076773	3.74	-0.07256129
-4.3076773	3.77	-0.07256129
-4.3076773	3.78	-0.07256129
-4.3076773	3.80	-0.07256129
-4.3076773	3.84	-0.07256129
-4.3076773	3.88	-0.07256129
-4.3076773	3.90SR	-0.07256129
-4.3076773	3.92	-0.07256129
-4.3076773	3.96	-0.07256129
-4.3076773	3.98	-0.07256129
-4.3076773	3/04	-0.07256129
-4.1253304	30	-0.16982675
-4.3076773	30,	-0.07256129
-3.981255	7,	-0.07256129
-4.1253304	UNIVERSITI	-0.22807278
-4.3076773	30-04-18	-0.07256129
-4.1253304	30-04-2018	-0.07256129
-4.1253304	30-05-2018	-0.07256129
-4.3076773	30-06-16	-0.07256129
-4.1253304	30-06-2018	-0.07256129
-4.3076773	09:09:49	-0.07256129
-4.1253304	30.00	-0.16982675
-4.3076773	30.01	-0.07256129
-4.3076773	30.03	-0.07256129
-4.3076773	30.10	-0.07256129
-4.3076773	30.20	-0.07256129
-4.3076773	30.23	-0.07256129
-4.3076773	30.24	-0.07256129
-4.3076773	30.28	-0.07256129
-4.3076773	30.30	-0.07256129
-4.3076773	30.40	-0.07256129
-4.3076773	30.45	-0.07256129
-4.3076773	30.52	-0.07256129
-4.1253304	30.70	-0.22807278
-4.3076773	30.74	-0.07256129
-4.3076773	30.7400	-0.07256129
-4.3076773	30.90	-0.07256129
-3.981255	30/03/2018	-0.07256129
-4.3076773	30/04/2017	-0.07256129
-4.3076773	19:44	-0.07256129
-4.3076773	20:22	-0.07256129
-4.1253304	21:51	-0.22807278
-4.3076773	23:14	-0.07256129
-4.3076773	30/05/18	-0.07256129
-4.3076773	11:01	-0.07256129
-4.1253304	30/07/2017	-0.22807278
-4.3076773	30/11/2020	-0.07256129
-4.1253304	300.00	-0.22807278
-4.1253304	3000000100068587	-0.22807278
-4.3076773	30001635	-0.07256129
-4.3076773	30001640	-0.07256129
-4.3076773	300PCSLOT100CANDY	-0.07256129
-4.1253304	ASSORTED	-0.07256129
-4.3076773	301	-0.07256129
-4.3076773	30169728	-0.07256129
-4.3076773	BAGIS	-0.07256129
-4.3076773	COAT-HANGER	-0.07256129
-3.981255	CH	-0.30265346
-4.3076773	3068320113784	-0.07256129
-4.3076773	3097352783	-0.07256129
-4.3076773	30W	-0.07256129
-4.3076773	T8	-0.07256129
-4.3076773	TUBE^D/L	-0.07256129
-4.3076773	-FNM	-0.07256129
-4.1253304	@16.00	-0.22807278
-4.3076773	31.00	-0.07256129
-4.3076773	31.03	-0.07256129
-4.3076773	31.05	-0.07256129
-4.3076773	31.10	-0.07256129
-4.1253304	31.20	-0.22807278
-4.3076773	31.45	-0.07256129
-4.3076773	31.47	-0.07256129
-4.3076773	31.50	-0.07256129
-4.3076773	31.60	-0.07256129
-4.3076773	31.60SR	-0.07256129
-4.3076773	31.78	-0.07256129
-4.3076773	31.80	-0.07256129
-4.3076773	31/10/2020	-0.07256129
-4.3076773	310.47	-0.07256129
-4.3076773	3122	-0.07256129
-4.3076773	313.50	-0.07256129
-4.3076773	3180301	-0.07256129
-4.3076773	3180303	-0.07256129
-4.3076773	3180404	-0.07256129
-4.3076773	31ST	-0.07256129
-4.3076773	MARCH	-0.07256129
-4.3076773	FOLLOWING	-0.07256129
-4.3076773	YEAR	-0.07256129
-4.3076773	32	-0.07256129
-4.3076773	PHRANAKON	-0.07256129
-4.3076773	PUB	-0.07256129
-4.1253304	BISTRO	-0.07256129
-4.1253304	OWN	-0.07256129
-3.2924776	BY	-0.16549906
-4.3076773	CNU	-0.07256129
-3.3769312	TRADING	-0.3296546
-4.3076773	32.00	-0.07256129
-4.3076773	32.07	-0.07256129
-4.3076773	32.10	-0.07256129
-4.3076773	32.15	-0.07256129
-4.3076773	32.70	-0.07256129
-4.3076773	32.70SR	-0.07256129
-4.3076773	32.88	-0.07256129
-4.3076773	320ML.	-0.07256129
-4.3076773	'WOODSHEER'	-0.07256129
-4.3076773	MAHAGANY	-0.07256129
-4.3076773	150	-0.07256129
-4.3076773	324.50	-0.07256129
-4.3076773	325	-0.07256129
-4.3076773	CINTAN	-0.07256129
-3.8254461	MI	-0.07256129
-4.3076773	PERISA	-0.07256129
-4.3076773	ASLI	-0.07256129
-4.3076773	327.00	-0.07256129
-4.3076773	329.10	-0.07256129
-4.3076773	32MM	-0.07256129
-4.1253304	POLY	-0.07256129
-4.3076773	SOCKET	-0.07256129
-4.3076773	BANGAU	-0.07256129
-4.3076773	1,KEPONG	-0.07256129
-3.981255	BARU,	-0.16982675
-4.3076773	33-G	-0.07256129
-4.3076773	MAJO	-0.07256129
-4.3076773	3/1	-0.07256129
-4.3076773	33.00	-0.07256129
-4.3076773	33.05	-0.07256129
-4.3076773	33.40	-0.07256129
-4.3076773	33.50	-0.07256129
-4.3076773	33.57	-0.07256129
-4.3076773	33.5LRT	-0.07256129
-4.3076773	OXIDE	-0.07256129
-4.3076773	33.60	-0.07256129
-4.3076773	33.92	-0.07256129
-4.3076773	33.93	-0.07256129
-4.3076773	33.95	-0.07256129
-4.3076773	33.96	-0.07256129
-4.3076773	330	-0.07256129
-4.3076773	33037	-0.07256129
-4.3076773	331	-0.07256129
-4.3076773	33100	-0.07256129
-4.3076773	33101	-0.07256129
-4.3076773	332.30	-0.07256129
-4.1253304	34	-0.07256129
-4.3076773	LOOPS	-0.07256129
-4.3076773	6.4MM	-0.07256129
-4.1253304	(WHITE)	-0.22807278
-4.3076773	34.00	-0.07256129
-4.1253304	34.10	-0.22807278
-4.3076773	34.21	-0.07256129
-4.3076773	34.60	-0.07256129
-4.3076773	34.90	-0.07256129
-4.3076773	34013001929120171013	-0.07256129
-4.3076773	341.00	-0.07256129
-4.3076773	3416	-0.07256129
-4.3076773	3432	-0.07256129
-4.3076773	3474370026019	-0.07256129
-4.3076773	3483	-0.07256129
-4.3076773	349000	-0.07256129
-4.3076773	35.10	-0.07256129
-4.3076773	35.14	-0.07256129
-4.3076773	35.20	-0.07256129
-4.3076773	35.32	-0.07256129
-4.3076773	35.35	-0.07256129
-4.3076773	35.40	-0.07256129
-4.3076773	35.60	-0.07256129
-4.3076773	35.66	-0.07256129
-4.3076773	35.80	-0.07256129
-4.3076773	35.92	-0.07256129
-4.1253304	350ML	-0.07256129
-4.3076773	CALPIS	-0.07256129
-4.3076773	353.00	-0.07256129
-4.3076773	355	-0.07256129
-4.3076773	CRISPI	-0.07256129
-4.3076773	GRAIN	-0.07256129
-4.1253304	SE	-0.22807278
-4.3076773	355,	-0.07256129
-4.3076773	MELAWATI,	-0.07256129
-4.3076773	356.16	-0.07256129
-4.3076773	359.20	-0.07256129
-4.1253304	36	-0.22807278
-4.3076773	36.00	-0.07256129
-4.3076773	36.04	-0.07256129
-4.3076773	36.36	-0.07256129
-4.3076773	36.41	-0.07256129
-4.3076773	36.55	-0.07256129
-4.3076773	36.60	-0.07256129
-4.3076773	36.75	-0.07256129
